{"learner":{"attributes":{"scikit_learn":"{\"_estimator_type\": \"classifier\"}"},"feature_names":[],"feature_types":[],"gradient_booster":{"model":{"cats":{"enc":[],"feature_segments":[],"sorted_idx":[]},"gbtree_model_param":{"num_parallel_tree":"1","num_trees":"500"},"iteration_indptr":[0,1,2,3,4,5,6,7,8,9,10,11,12,13,14,15,16,17,18,19,20,21,22,23,24,25,26,27,28,29,30,31,32,33,34,35,36,37,38,39,40,41,42,43,44,45,46,47,48,49,50,51,52,53,54,55,56,57,58,59,60,61,62,63,64,65,66,67,68,69,70,71,72,73,74,75,76,77,78,79,80,81,82,83,84,85,86,87,88,89,90,91,92,93,94,95,96,97,98,99,100,101,102,103,104,105,106,107,108,109,110,111,112,113,114,115,116,117,118,119,120,121,122,123,124,125,126,127,128,129,130,131,132,133,134,135,136,137,138,139,140,141,142,143,144,145,146,147,148,149,150,151,152,153,154,155,156,157,158,159,160,161,162,163,164,165,166,167,168,169,170,171,172,173,174,175,176,177,178,179,180,181,182,183,184,185,186,187,188,189,190,191,192,193,194,195,196,197,198,199,200,201,202,203,204,205,206,207,208,209,210,211,212,213,214,215,216,217,218,219,220,221,222,223,224,225,226,227,228,229,230,231,232,233,234,235,236,237,238,239,240,241,242,243,244,245,246,247,248,249,250,251,252,253,254,255,256,257,258,259,260,261,262,263,264,265,266,267,268,269,270,271,272,273,274,275,276,277,278,279,280,281,282,283,284,285,286,287,288,289,290,291,292,293,294,295,296,297,298,299,300,301,302,303,304,305,306,307,308,309,310,311,312,313,314,315,316,317,318,319,320,321,322,323,324,325,326,327,328,329,330,331,332,333,334,335,336,337,338,339,340,341,342,343,344,345,346,347,348,349,350,351,352,353,354,355,356,357,358,359,360,361,362,363,364,365,366,367,368,369,370,371,372,373,374,375,376,377,378,379,380,381,382,383,384,385,386,387,388,389,390,391,392,393,394,395,396,397,398,399,400,401,402,403,404,405,406,407,408,409,410,411,412,413,414,415,416,417,418,419,420,421,422,423,424,425,426,427,428,429,430,431,432,433,434,435,436,437,438,439,440,441,442,443,444,445,446,447,448,449,450,451,452,453,454,455,456,457,458,459,460,461,462,463,464,465,466,467,468,469,470,471,472,473,474,475,476,477,478,479,480,481,482,483,484,485,486,487,488,489,490,491,492,493,494,495,496,497,498,499,500],"tree_info":[0,0,0,0,0,0,0,0,0,0,0,0,0,0,0,0,0,0,0,0,0,0,0,0,0,0,0,0,0,0,0,0,0,0,0,0,0,0,0,0,0,0,0,0,0,0,0,0,0,0,0,0,0,0,0,0,0,0,0,0,0,0,0,0,0,0,0,0,0,0,0,0,0,0,0,0,0,0,0,0,0,0,0,0,0,0,0,0,0,0,0,0,0,0,0,0,0,0,0,0,0,0,0,0,0,0,0,0,0,0,0,0,0,0,0,0,0,0,0,0,0,0,0,0,0,0,0,0,0,0,0,0,0,0,0,0,0,0,0,0,0,0,0,0,0,0,0,0,0,0,0,0,0,0,0,0,0,0,0,0,0,0,0,0,0,0,0,0,0,0,0,0,0,0,0,0,0,0,0,0,0,0,0,0,0,0,0,0,0,0,0,0,0,0,0,0,0,0,0,0,0,0,0,0,0,0,0,0,0,0,0,0,0,0,0,0,0,0,0,0,0,0,0,0,0,0,0,0,0,0,0,0,0,0,0,0,0,0,0,0,0,0,0,0,0,0,0,0,0,0,0,0,0,0,0,0,0,0,0,0,0,0,0,0,0,0,0,0,0,0,0,0,0,0,0,0,0,0,0,0,0,0,0,0,0,0,0,0,0,0,0,0,0,0,0,0,0,0,0,0,0,0,0,0,0,0,0,0,0,0,0,0,0,0,0,0,0,0,0,0,0,0,0,0,0,0,0,0,0,0,0,0,0,0,0,0,0,0,0,0,0,0,0,0,0,0,0,0,0,0,0,0,0,0,0,0,0,0,0,0,0,0,0,0,0,0,0,0,0,0,0,0,0,0,0,0,0,0,0,0,0,0,0,0,0,0,0,0,0,0,0,0,0,0,0,0,0,0,0,0,0,0,0,0,0,0,0,0,0,0,0,0,0,0,0,0,0,0,0,0,0,0,0,0,0,0,0,0,0,0,0,0,0,0,0,0,0,0,0,0,0,0,0,0,0,0,0,0,0,0,0,0,0,0,0,0,0,0,0,0,0,0,0,0,0,0,0,0,0,0,0,0,0,0,0,0,0,0,0,0,0,0,0,0,0,0,0,0,0,0,0,0,0,0,0,0,0,0,0,0],"trees":[{"base_weights":[-5.148533E-4,-6.3404465E-1,4.2769483E-1,-1.400177E0,-3.9569396E-1,-8.809513E-1,5.4237425E-1,-1.4759139E0,4.4208091E-1,-1.4836061E0,-2.5276634E-1,-4.3181255E-1,-1.3650054E0,6.526346E-1,-7.785329E-1,-9.49384E-2,-1.3708146E0,-1.02051385E-2,6.02756E-1,-1.503717E0,5.304302E-2,-1.6624668E-1,-1.5046129E0,-5.882251E-1,6.024819E-1,-1.4024718E0,7.069274E-2,7.174153E-1,-7.1402955E-1,-4.9121574E-2,-7.3513424E-1,-1.1942297E0,-7.944929E-2,3.1217908E-2,1.65016E-2,-1.5699096E0,-6.6596156E-1,-6.615035E-2,-1.1361284E0,-3.2965243E-2,-7.6409005E-2,-4.911925E-1,-8.278095E-2,5.6527883E-2,1.15390114E-1,-1.4914284E0,-2.4837251E-1,6.204769E-1,1.1744447E0,-7.832206E-1,4.6799818E-1,-8.1540656E-1,-5.539585E-1,-1.2242581E0,2.2715937E-2,-1.3701682E0,-1.752787E0,-3.6173272E-1,-1.036834E0,-9.933136E-2,9.1622524E-2,-6.4195566E-2,-1.0138477E0,-9.5673285E-2,-4.0388712E-1,-7.369019E-3,2.5431542E-2,-1.5191206E0,3.5157025E-2,-4.8512515E-1,3.7197944E-2,6.652416E-1,1.0539115E-1,1.1663778E0,8.194628E-2,-5.4404926E-1,-8.2823294E-1,5.0450858E-2,-1.8223326E-1,-4.0281754E-2,-5.1871665E-2,-1.809776E-2,-3.459461E-2,-6.6362135E-2,-4.4122793E-2,-7.214456E-2,-4.2952824E-2,-7.81342E-2,-9.713035E-2,1.2999151E-3,-3.225856E-2,-4.143541E-2,-6.814979E-2,2.7484894E-3,-2.0893598E-2,-4.9382433E-2,-7.735239E-2,-1.4944272E-2,-6.441273E-2,-7.886755E-2,-4.3508846E-2,-4.3063346E-2,-8.341961E-3,3.4118365E-2,-2.5232786E-2,-3.8411387E-3,5.830657E-2,5.7032842E-2,6.42515E-2,-5.677382E-3,-2.9223843E-2,-4.652479E-2,-3.9532047E-2,-1.4664905E-2,-2.6329448E-3],"categories":[],"categories_nodes":[],"categories_segments":[],"categories_sizes":[],"default_left":[0,0,0,0,0,0,0,0,0,0,0,0,0,0,0,0,0,0,0,0,0,0,0,0,0,0,0,0,0,0,0,0,0,0,0,0,0,0,0,0,0,0,0,0,0,0,0,0,0,0,0,0,0,0,0,0,0,0,0,0,0,0,0,0,0,0,0,0,0,0,0,0,0,0,0,0,0,0,0,0,0,0,0,0,0,0,0,0,0,0,0,0,0,0,0,0,0,0,0,0,0,0,0,0,0,0,0,0,0,0,0,0,0,0,0],"id":0,"left_children":[1,3,5,7,9,11,13,15,17,19,21,23,25,27,29,-1,31,-1,33,35,-1,37,39,41,43,45,-1,47,49,-1,51,53,-1,-1,-1,55,57,59,61,-1,-1,63,-1,-1,65,67,69,71,73,75,77,79,81,83,-1,85,87,89,91,93,-1,-1,95,-1,97,-1,-1,99,-1,101,-1,103,105,107,-1,109,111,-1,113,-1,-1,-1,-1,-1,-1,-1,-1,-1,-1,-1,-1,-1,-1,-1,-1,-1,-1,-1,-1,-1,-1,-1,-1,-1,-1,-1,-1,-1,-1,-1,-1,-1,-1,-1,-1],"loss_changes":[5.763916E3,1.5640564E3,1.9030383E3,2.843921E2,1.01594855E3,2.2137073E2,1.6982454E3,8.38584E1,8.571655E0,4.046985E1,6.255493E2,8.6348305E1,5.3122375E1,9.530801E2,7.0563965E0,0E0,5.8227783E1,0E0,8.285141E-2,4.0506104E1,0E0,5.2472644E2,6.2127686E0,4.6856644E1,1.7811514E1,4.9268738E1,0E0,4.5422656E2,4.0256622E1,0E0,1.0248566E1,4.3740967E1,0E0,0E0,0E0,2.2758057E1,5.917677E0,3.0884418E2,7.6065063E0,0E0,0E0,5.1807312E1,0E0,0E0,4.011735E0,2.8509521E1,8.793394E0,1.9532861E2,4.5388184E0,4.3736267E0,9.939359E0,9.47876E-2,5.7960434E0,2.8723755E1,0E0,1.1098694E1,9.611206E0,3.7057147E0,3.4889412E-1,2.369258E2,0E0,0E0,2.1557007E0,0E0,3.6790466E1,0E0,0E0,1.5196533E1,0E0,3.315703E0,0E0,1.5662695E2,1.3148097E2,3.6914062E0,0E0,1.1911068E0,5.745239E-1,0E0,1.4065313E-1,0E0,0E0,0E0,0E0,0E0,0E0,0E0,0E0,0E0,0E0,0E0,0E0,0E0,0E0,0E0,0E0,0E0,0E0,0E0,0E0,0E0,0E0,0E0,0E0,0E0,0E0,0E0,0E0,0E0,0E0,0E0,0E0,0E0,0E0,0E0,0E0],"parents":[2147483647,0,0,1,1,2,2,3,3,4,4,5,5,6,6,7,7,8,8,9,9,10,10,11,11,12,12,13,13,14,14,16,16,18,18,19,19,21,21,22,22,23,23,24,24,25,25,27,27,28,28,30,30,31,31,35,35,36,36,37,37,38,38,41,41,44,44,45,45,46,46,47,47,48,48,49,49,50,50,51,51,52,52,53,53,55,55,56,56,57,57,58,58,59,59,62,62,64,64,67,67,69,69,71,71,72,72,73,73,75,75,76,76,78,78],"right_children":[2,4,6,8,10,12,14,16,18,20,22,24,26,28,30,-1,32,-1,34,36,-1,38,40,42,44,46,-1,48,50,-1,52,54,-1,-1,-1,56,58,60,62,-1,-1,64,-1,-1,66,68,70,72,74,76,78,80,82,84,-1,86,88,90,92,94,-1,-1,96,-1,98,-1,-1,100,-1,102,-1,104,106,108,-1,110,112,-1,114,-1,-1,-1,-1,-1,-1,-1,-1,-1,-1,-1,-1,-1,-1,-1,-1,-1,-1,-1,-1,-1,-1,-1,-1,-1,-1,-1,-1,-1,-1,-1,-1,-1,-1,-1,-1],"split_conditions":[2E0,1E0,9.7E1,1E0,9.5E1,1.7E1,1E0,9.5E1,1E0,1E0,1E0,1E0,1E0,1E0,2.024E3,-9.49384E-2,1E0,-1.02051385E-2,5E1,1E0,5.304302E-2,1E0,2.023E3,1E0,2.025E3,3E0,7.069274E-2,1E0,3E0,-4.9121574E-2,5E1,1E0,-7.944929E-2,3.1217908E-2,1.65016E-2,3E1,1.4E1,1E0,2.025E3,-3.2965243E-2,-7.6409005E-2,6E0,-8.278095E-2,5.6527883E-2,5E1,1E0,1E0,1E0,3E0,1E0,1E0,3E0,2.025E3,1E0,2.2715937E-2,1E0,1E0,2.025E3,4.4E1,1E0,9.1622524E-2,-6.4195566E-2,1E0,-9.5673285E-2,1E0,-7.369019E-3,2.5431542E-2,1E0,3.5157025E-2,2.025E3,3.7197944E-2,1E0,3E0,5E1,8.194628E-2,2.024E3,2.025E3,5.0450858E-2,2.025E3,-4.0281754E-2,-5.1871665E-2,-1.809776E-2,-3.459461E-2,-6.6362135E-2,-4.4122793E-2,-7.214456E-2,-4.2952824E-2,-7.81342E-2,-9.713035E-2,1.2999151E-3,-3.225856E-2,-4.143541E-2,-6.814979E-2,2.7484894E-3,-2.0893598E-2,-4.9382433E-2,-7.735239E-2,-1.4944272E-2,-6.441273E-2,-7.886755E-2,-4.3508846E-2,-4.3063346E-2,-8.341961E-3,3.4118365E-2,-2.5232786E-2,-3.8411387E-3,5.830657E-2,5.7032842E-2,6.42515E-2,-5.677382E-3,-2.9223843E-2,-4.652479E-2,-3.9532047E-2,-1.4664905E-2,-2.6329448E-3],"split_indices":[1123,1123,1125,855,1125,1125,437,1125,360,125,437,287,329,808,1129,0,437,0,1126,178,0,917,1129,439,1129,1123,0,287,1123,0,1126,601,0,0,0,1125,1125,125,1129,0,0,1125,0,0,1126,360,99,917,1123,99,99,1123,1129,142,0,22,289,1129,1125,38,0,0,2,0,437,0,0,287,0,1129,0,139,1123,1126,0,1129,1129,0,1129,0,0,0,0,0,0,0,0,0,0,0,0,0,0,0,0,0,0,0,0,0,0,0,0,0,0,0,0,0,0,0,0,0,0,0,0],"split_type":[0,0,0,0,0,0,0,0,0,0,0,0,0,0,0,0,0,0,0,0,0,0,0,0,0,0,0,0,0,0,0,0,0,0,0,0,0,0,0,0,0,0,0,0,0,0,0,0,0,0,0,0,0,0,0,0,0,0,0,0,0,0,0,0,0,0,0,0,0,0,0,0,0,0,0,0,0,0,0,0,0,0,0,0,0,0,0,0,0,0,0,0,0,0,0,0,0,0,0,0,0,0,0,0,0,0,0,0,0,0,0,0,0,0,0],"sum_hessian":[2.1244754E4,8.568112E3,1.2676641E4,2.0318447E3,6.5362676E3,1.02076715E3,1.1655874E4,1.9518553E3,7.998934E1,7.5783417E2,5.7784336E3,5.305682E2,4.90199E2,1.0758416E4,8.9745764E2,3.8496753E2,1.5668878E3,1.5751044E1,6.4238304E1,7.5233624E2,5.497925E0,5.4060166E3,3.7241678E2,4.6133075E2,6.923741E1,4.8420197E2,5.9970345E0,1.02720625E4,4.863533E2,1.5329501E2,7.441626E2,8.6980865E2,6.970792E2,5.798904E1,6.2492604E0,6.963249E2,5.60113E1,4.901346E3,5.0467053E2,1.1002378E1,3.614144E2,4.2431204E2,3.701871E1,3.2488735E1,3.6748676E1,4.4919928E2,3.500268E1,8.476688E3,1.7953739E3,4.5985715E2,2.6496151E1,5.128744E2,2.3128822E2,8.5456085E2,1.524778E1,3.371375E2,3.5918738E2,3.2003574E1,2.4007725E1,4.818142E3,8.320418E1,2.238357E2,2.8083484E2,2.3263807E1,4.0104822E2,2.2251047E1,1.4497631E1,4.4395062E2,5.2486663E0,2.8754314E1,6.24837E0,7.79846E3,6.782287E2,1.7683875E3,2.6986359E1,7.5262344E1,3.8459482E2,1.4245405E1,1.2250747E1,4.961189E2,1.6755497E1,9.851072E1,1.327775E2,6.542581E2,2.0030275E2,2.933761E2,4.376144E1,1.8433598E2,1.7485141E2,1.3749857E1,1.8253716E1,1.7004457E1,7.003267E0,3.246197E3,1.5719451E3,2.7057962E2,1.0255198E1,3.5978204E2,4.126619E1,4.0594052E2,3.8010105E1,1.2253417E1,1.6500896E1,7.6864434E3,1.1201695E2,5.7951324E2,9.871546E1,1.4627545E3,3.0563303E2,7.0002995E0,6.826205E1,9.627689E1,2.883179E2,5.5005956E0,6.7501507E0],"tree_param":{"num_deleted":"0","num_feature":"1130","num_nodes":"115","size_leaf_vector":"1"}},{"base_weights":[-3.568733E-3,-6.023418E-1,4.0371102E-1,-1.3340704E0,-3.7651494E-1,-8.37627E-1,5.1239985E-1,-1.4039006E0,3.8928232E-1,-1.3978565E0,-2.4279165E-1,-4.1328835E-1,-1.3044094E0,6.163134E-1,-7.2981447E-1,-8.998173E-2,-1.3068577E0,-1.9287983E-2,5.98426E-1,-1.4190491E0,5.415622E-2,-1.6327672E-1,-7.152619E-2,-6.566918E-1,1.400995E-1,-1.3995485E0,1.4806783E-1,6.760548E-1,-6.355522E-1,-7.727866E-1,-6.4067996E-1,-1.355299E0,-2.898156E-2,3.136846E-2,1.6280567E-2,-1.4879355E0,-5.68696E-1,-6.1720457E-2,-1.1353112E0,-7.2512454E-1,3.9599035E-2,-7.013401E-2,6.907813E-1,-1.4431807E0,-5.3028023E-1,-3.54009E-1,8.684899E-1,5.8235985E-1,1.1180828E0,-7.041136E-1,5.31157E-1,-2.334778E-2,-7.8698266E-1,-4.628515E-2,-3.1580754E-2,-1.3737546E0,4.423663E-3,-1.5484328E0,-9.2405045E-1,-3.2660782E-1,-9.174863E-1,1.00656115E-1,-4.0580773E-1,-5.601721E-2,-7.41475E-2,-6.202343E-1,-8.102422E-2,-8.0537446E-2,2.0511203E-2,2.2473622E-2,4.1550316E-2,-1.4648602E0,-2.3318304E-2,-6.0716105E-1,-1.2399211E-2,-8.10538E-1,3.360473E-2,2.202555E-2,5.924775E-2,6.256394E-1,8.398909E-2,1.1106113E0,7.883776E-2,-7.5678897E-1,-4.1361994E-1,1.8140016E-3,4.5690037E-2,-3.8883906E-2,-5.1636662E-2,-6.2421627E-2,-7.543785E-2,-7.871445E-2,-1.5563505E-2,-3.499665E-2,-6.2036425E-2,-2.486792E-2,-2.2425328E-3,-3.489184E-2,-6.6815995E-2,8.077089E-3,-5.3373035E-2,-1.8621065E-2,-6.471574E-2,-7.006547E-2,-2.4382541E-2,1.5115726E-2,-8.878575E-3,-7.559577E-2,-4.9775008E-2,-4.467466E-2,-1.965547E-2,-6.399587E-2,-1.721612E-2,3.2157794E-2,-2.3865579E-2,-4.383478E-3,5.4069895E-2,5.4420907E-2,6.059264E-2,-3.664814E-2,-4.1990634E-2,-1.7142273E-2,-2.5826966E-2],"categories":[],"categories_nodes":[],"categories_segments":[],"categories_sizes":[],"default_left":[0,0,0,0,0,0,0,0,0,0,0,0,0,0,0,0,0,0,0,0,0,0,0,0,0,0,0,0,0,0,0,0,0,0,0,0,0,0,0,0,0,0,0,0,0,0,0,0,0,0,0,0,0,0,0,0,0,0,0,0,0,0,0,0,0,0,0,0,0,0,0,0,0,0,0,0,0,0,0,0,0,0,0,0,0,0,0,0,0,0,0,0,0,0,0,0,0,0,0,0,0,0,0,0,0,0,0,0,0,0,0,0,0,0,0,0,0,0,0,0,0,0,0],"id":1,"left_children":[1,3,5,7,9,11,13,15,17,19,21,23,25,27,29,-1,31,-1,33,35,-1,37,-1,39,41,43,45,47,49,51,53,55,-1,-1,-1,57,59,61,63,65,-1,67,69,71,73,75,77,79,81,83,85,-1,87,-1,-1,89,-1,91,93,95,97,99,101,-1,-1,103,-1,-1,105,-1,-1,107,-1,109,-1,111,-1,-1,-1,113,115,117,-1,119,121,-1,-1,-1,-1,-1,-1,-1,-1,-1,-1,-1,-1,-1,-1,-1,-1,-1,-1,-1,-1,-1,-1,-1,-1,-1,-1,-1,-1,-1,-1,-1,-1,-1,-1,-1,-1,-1,-1],"loss_changes":[5.199344E3,1.4255728E3,1.7124016E3,2.4554956E2,9.0051074E2,2.01698E2,1.5066028E3,7.245654E1,1.3215816E1,4.1711914E1,5.506456E2,7.245615E1,6.749573E1,8.057593E2,2.815033E0,0E0,5.4494873E1,0E0,2.0162773E-1,4.3318848E1,0E0,5.397636E2,0E0,3.7561264E1,1.917776E1,1.634436E1,1.1469932E1,4.2485742E2,3.965947E1,2.1224365E0,3.3958435E-2,3.956543E1,0E0,0E0,0E0,2.2200562E1,4.5147743E0,2.7683157E2,7.695923E-1,3.2290237E1,0E0,1.6945677E1,1.0457535E0,8.310547E0,2.7394152E-1,9.333067E0,1.0744724E0,1.8284497E2,4.1359863E0,6.672592E0,5.123951E0,0E0,3.2806396E-1,0E0,0E0,2.2491455E1,0E0,1.9490356E1,3.9383926E0,1.6673977E0,1.0022564E0,2.394746E2,4.647351E1,0E0,0E0,3.239113E1,0E0,0E0,6.4424534E0,0E0,0E0,7.6046753E0,0E0,5.9273195E-1,0E0,2.3476353E0,0E0,0E0,0E0,1.5110986E2,1.16473335E2,2.43042E0,0E0,1.4953613E-3,2.7413464E-1,0E0,0E0,0E0,0E0,0E0,0E0,0E0,0E0,0E0,0E0,0E0,0E0,0E0,0E0,0E0,0E0,0E0,0E0,0E0,0E0,0E0,0E0,0E0,0E0,0E0,0E0,0E0,0E0,0E0,0E0,0E0,0E0,0E0,0E0,0E0,0E0,0E0,0E0],"parents":[2147483647,0,0,1,1,2,2,3,3,4,4,5,5,6,6,7,7,8,8,9,9,10,10,11,11,12,12,13,13,14,14,16,16,18,18,19,19,21,21,23,23,24,24,25,25,26,26,27,27,28,28,29,29,30,30,31,31,35,35,36,36,37,37,38,38,39,39,41,41,42,42,43,43,44,44,45,45,46,46,47,47,48,48,49,49,50,50,52,52,55,55,57,57,58,58,59,59,60,60,61,61,62,62,65,65,68,68,71,71,73,73,75,75,79,79,80,80,81,81,83,83,84,84],"right_children":[2,4,6,8,10,12,14,16,18,20,22,24,26,28,30,-1,32,-1,34,36,-1,38,-1,40,42,44,46,48,50,52,54,56,-1,-1,-1,58,60,62,64,66,-1,68,70,72,74,76,78,80,82,84,86,-1,88,-1,-1,90,-1,92,94,96,98,100,102,-1,-1,104,-1,-1,106,-1,-1,108,-1,110,-1,112,-1,-1,-1,114,116,118,-1,120,122,-1,-1,-1,-1,-1,-1,-1,-1,-1,-1,-1,-1,-1,-1,-1,-1,-1,-1,-1,-1,-1,-1,-1,-1,-1,-1,-1,-1,-1,-1,-1,-1,-1,-1,-1,-1,-1,-1],"split_conditions":[2E0,1E0,9.7E1,1E0,9.5E1,1.7E1,1E0,9.5E1,1E0,1E0,1E0,1E0,1E0,1E0,5E1,-8.998173E-2,1E0,-1.9287983E-2,5E1,1E0,5.415622E-2,1E0,-7.152619E-2,3E0,1E2,3E0,1E0,1E0,3E0,1E0,1E0,1E0,-2.898156E-2,3.136846E-2,1.6280567E-2,1E0,2.3E1,1E0,1E0,1E0,3.9599035E-2,6E0,1E0,1E0,1E0,3E0,1E0,1E0,3E0,1E0,1E0,-2.334778E-2,3E0,-4.628515E-2,-3.1580754E-2,1E0,4.423663E-3,1E0,1.3E1,5E1,5.4E1,1E0,1E0,-5.601721E-2,-7.41475E-2,1.3E1,-8.102422E-2,-8.0537446E-2,1E0,2.2473622E-2,4.1550316E-2,1E0,-2.3318304E-2,1E0,-1.2399211E-2,1E0,3.360473E-2,2.202555E-2,5.924775E-2,1E0,3E0,5E1,7.883776E-2,5E1,5E1,1.8140016E-3,4.5690037E-2,-3.8883906E-2,-5.1636662E-2,-6.2421627E-2,-7.543785E-2,-7.871445E-2,-1.5563505E-2,-3.499665E-2,-6.2036425E-2,-2.486792E-2,-2.2425328E-3,-3.489184E-2,-6.6815995E-2,8.077089E-3,-5.3373035E-2,-1.8621065E-2,-6.471574E-2,-7.006547E-2,-2.4382541E-2,1.5115726E-2,-8.878575E-3,-7.559577E-2,-4.9775008E-2,-4.467466E-2,-1.965547E-2,-6.399587E-2,-1.721612E-2,3.2157794E-2,-2.3865579E-2,-4.383478E-3,5.4069895E-2,5.4420907E-2,6.059264E-2,-3.664814E-2,-4.1990634E-2,-1.7142273E-2,-2.5826966E-2],"split_indices":[1123,1123,1125,855,1125,1125,437,1125,141,727,437,142,486,916,1126,0,524,0,1126,287,0,917,0,1123,1126,1123,1018,287,1123,29,29,486,0,0,0,22,1124,38,38,916,0,1124,47,218,38,1123,136,917,1123,54,54,0,1123,0,0,437,0,217,1124,1126,1124,916,371,0,0,1125,0,0,351,0,0,524,0,89,0,635,0,0,0,1056,1123,1126,0,1126,1126,0,0,0,0,0,0,0,0,0,0,0,0,0,0,0,0,0,0,0,0,0,0,0,0,0,0,0,0,0,0,0,0,0,0,0,0,0,0],"split_type":[0,0,0,0,0,0,0,0,0,0,0,0,0,0,0,0,0,0,0,0,0,0,0,0,0,0,0,0,0,0,0,0,0,0,0,0,0,0,0,0,0,0,0,0,0,0,0,0,0,0,0,0,0,0,0,0,0,0,0,0,0,0,0,0,0,0,0,0,0,0,0,0,0,0,0,0,0,0,0,0,0,0,0,0,0,0,0,0,0,0,0,0,0,0,0,0,0,0,0,0,0,0,0,0,0,0,0,0,0,0,0,0,0,0,0,0,0,0,0,0,0,0,0],"sum_hessian":[2.1318232E4,8.630153E3,1.2688079E4,2.0340457E3,6.5961074E3,1.020886E3,1.1667193E4,1.9550697E3,7.897588E1,7.6245856E2,5.833649E3,5.3585504E2,4.85031E2,1.076709E4,9.001028E2,3.813553E2,1.5737145E3,1.6501654E1,6.247423E1,7.5646515E2,5.993409E0,5.4687544E3,3.6489426E2,3.7215814E2,1.6369688E2,4.553127E2,2.9718294E1,1.0277184E4,4.899064E2,6.01382E2,2.9872073E2,1.4744955E3,9.921895E1,5.4975628E1,7.4986014E0,6.9897437E2,5.7490772E1,4.952494E3,5.162605E2,3.5591388E2,1.6244267E1,1.1896915E2,4.4727745E1,4.328128E2,2.2499908E1,1.7731E1,1.1987294E1,8.481861E3,1.7953223E3,4.631705E2,2.673589E1,2.8492575E1,5.7288947E2,5.750755E0,2.9297E2,1.4560013E3,1.8494112E1,6.2951276E2,6.946162E1,3.5248566E1,2.2242207E1,3.3649658E3,1.5875282E3,4.9927527E2,1.6985233E1,3.2020648E2,3.570738E1,5.740274E0,1.13228874E2,1.8246468E1,2.6481276E1,4.2282654E2,9.986254E0,1.6500977E1,5.998931E0,1.2484151E1,5.2468495E0,6.2469926E0,5.7403016E0,7.803716E3,6.7814575E2,1.7701276E3,2.5194765E1,3.9042514E2,7.274538E1,1.2249561E1,1.4486328E1,5.5639484E2,1.649464E1,7.607705E2,6.952309E2,6.162795E2,1.3233294E1,4.273996E1,2.6721653E1,2.1250322E1,1.3998243E1,1.6496056E1,5.74615E0,3.1991636E3,1.6580241E2,1.531512E3,5.601617E1,4.496796E1,2.7523853E2,4.6728695E1,6.6500175E1,3.8208667E2,4.0739872E1,5.501018E0,1.0999959E1,5.2443686E0,7.2397823E0,7.682218E3,1.2149774E2,5.792637E2,9.8882095E1,1.4623124E3,3.078151E2,3.119379E2,7.848722E1,4.6246162E1,2.6499216E1],"tree_param":{"num_deleted":"0","num_feature":"1130","num_nodes":"123","size_leaf_vector":"1"}},{"base_weights":[9.540336E-4,-5.726291E-1,3.890377E-1,-1.2837719E0,-3.5154903E-1,-7.919862E-1,4.9145982E-1,-1.3482065E0,3.3366668E-1,-1.332907E0,-2.2464025E-1,-4.0776387E-1,-1.2204399E0,5.8882743E-1,-6.951299E-1,-8.589247E-2,-1.2560924E0,-1.3459018E-2,2.5446165E-2,-1.3975456E0,-5.9456074E-1,-1.479655E-1,-1.3500196E0,-6.328234E-1,9.792343E-2,-1.3107146E0,1.9689476E-1,6.432148E-1,-7.006102E-1,-4.5014247E-2,-6.545039E-1,-1.2989829E0,-2.8337805E-2,-1.4168292E0,4.1674655E-2,-2.9494485E-1,-9.7799337E-1,-5.670536E-2,-1.0400143E0,-2.0989275E-2,-6.8784766E-2,-7.0828164E-1,4.5140315E-2,4.3819213E-1,-1.8690589E-1,-1.3640355E0,-4.5520544E-1,-3.093391E-1,4.469818E-2,5.5536056E-1,1.0572796E0,-1.3830212E-2,-7.382731E-1,-5.679998E-1,-3.6215033E-2,-1.3176954E0,-1.0047578E-2,-1.2168651E0,-1.5932189E0,3.6459867E-4,-2.7487038E-2,-7.230123E-2,-7.9150426E-1,-8.7116994E-2,8.509708E-2,-1.0258924E0,-6.9255374E-2,-6.1259854E-1,-7.932802E-2,2.2765294E-1,3.6085214E-2,-4.90331E-2,-7.836831E-2,-1.4094318E0,-9.0059835E-1,-3.9151102E-2,-2.1623375E-1,-4.2518646E-2,4.0230807E-2,5.211517E-1,1.1294079E0,1.0507275E0,7.145427E-2,-7.552953E-1,-1.762581E-1,-9.443387E-3,-5.819967E-1,-6.64516E-2,1.4482315E-2,3.2141265E-3,-8.516122E-3,-6.2184196E-2,-0E0,-7.1458384E-2,-8.772164E-2,-2.3773586E-2,-6.2686615E-2,-8.880723E-3,2.3366833E-2,-5.4595497E-2,-4.8357375E-2,-7.128962E-2,-2.3752447E-2,4.5947235E-2,-9.148625E-4,-7.8558736E-4,-1.8815387E-2,-7.1553454E-2,-2.6835049E-2,-2.8013421E-2,-6.993151E-2,-5.3947037E-3,-1.4921275E-2,2.8301656E-2,-2.7199716E-3,5.2476715E-2,8.076217E-2,5.4079264E-2,5.12182E-2,-4.3008562E-2,-3.5826217E-2,-2.466843E-3,-1.2682261E-2,-2.8587094E-2,-4.9045213E-2],"categories":[],"categories_nodes":[],"categories_segments":[],"categories_sizes":[],"default_left":[0,0,0,0,0,0,0,0,0,0,0,0,0,0,0,0,0,0,0,0,0,0,0,0,0,0,0,0,0,0,0,0,0,0,0,0,0,0,0,0,0,0,0,0,0,0,0,0,0,0,0,0,0,0,0,0,0,0,0,0,0,0,0,0,0,0,0,0,0,0,0,0,0,0,0,0,0,0,0,0,0,0,0,0,0,0,0,0,0,0,0,0,0,0,0,0,0,0,0,0,0,0,0,0,0,0,0,0,0,0,0,0,0,0,0,0,0,0,0,0,0,0,0,0,0],"id":2,"left_children":[1,3,5,7,9,11,13,15,17,19,21,23,25,27,29,-1,31,-1,-1,33,35,37,39,41,43,45,47,49,51,-1,53,55,-1,57,-1,59,61,63,65,-1,-1,67,-1,69,71,73,75,77,-1,79,81,-1,83,85,-1,87,89,91,93,-1,-1,-1,95,97,-1,99,-1,101,-1,103,-1,-1,105,107,109,-1,111,-1,-1,113,115,117,-1,119,121,-1,123,-1,-1,-1,-1,-1,-1,-1,-1,-1,-1,-1,-1,-1,-1,-1,-1,-1,-1,-1,-1,-1,-1,-1,-1,-1,-1,-1,-1,-1,-1,-1,-1,-1,-1,-1,-1,-1,-1],"loss_changes":[4.733042E3,1.348417E3,1.534439E3,2.1257764E2,8.1494446E2,1.6599866E2,1.3487954E3,6.4170654E1,8.474123E0,3.4736694E1,5.0001047E2,6.1045067E1,6.1531128E1,7.568877E2,6.63501E0,0E0,4.550586E1,0E0,0E0,3.0848877E1,6.7290573E0,4.4188245E2,8.072388E0,4.3581024E1,1.6158043E1,1.9705688E1,1.0718933E1,3.7577393E2,6.672165E0,0E0,3.946228E0,3.548877E1,0E0,2.186206E1,0E0,2.8683133E0,9.6234703E-1,2.6351193E2,7.9315186E-1,0E0,0E0,2.8557755E1,0E0,4.272564E0,7.6305614E0,7.390442E0,1.9233146E0,1.1360188E1,0E0,1.6697144E2,2.6608887E0,0E0,3.6050873E0,1.6020355E0,0E0,2.7023926E1,2.8634238E-1,1.0646484E1,6.67572E0,0E0,0E0,0E0,2.3652544E0,2.4313428E2,0E0,6.311035E-1,0E0,3.503356E1,0E0,7.7972E0,0E0,0E0,1.4666114E0,6.2662354E0,5.9137535E0,0E0,8.5187376E-2,0E0,0E0,2.0835449E2,1.6639038E1,1.3195801E-1,0E0,8.046417E-1,8.733511E-2,0E0,6.1089325E-1,0E0,0E0,0E0,0E0,0E0,0E0,0E0,0E0,0E0,0E0,0E0,0E0,0E0,0E0,0E0,0E0,0E0,0E0,0E0,0E0,0E0,0E0,0E0,0E0,0E0,0E0,0E0,0E0,0E0,0E0,0E0,0E0,0E0,0E0,0E0,0E0,0E0,0E0],"parents":[2147483647,0,0,1,1,2,2,3,3,4,4,5,5,6,6,7,7,8,8,9,9,10,10,11,11,12,12,13,13,14,14,16,16,19,19,20,20,21,21,22,22,23,23,24,24,25,25,26,26,27,27,28,28,30,30,31,31,33,33,35,35,36,36,37,37,38,38,41,41,43,43,44,44,45,45,46,46,47,47,49,49,50,50,52,52,53,53,55,55,56,56,57,57,58,58,62,62,63,63,65,65,67,67,69,69,72,72,73,73,74,74,76,76,79,79,80,80,81,81,83,83,84,84,86,86],"right_children":[2,4,6,8,10,12,14,16,18,20,22,24,26,28,30,-1,32,-1,-1,34,36,38,40,42,44,46,48,50,52,-1,54,56,-1,58,-1,60,62,64,66,-1,-1,68,-1,70,72,74,76,78,-1,80,82,-1,84,86,-1,88,90,92,94,-1,-1,-1,96,98,-1,100,-1,102,-1,104,-1,-1,106,108,110,-1,112,-1,-1,114,116,118,-1,120,122,-1,124,-1,-1,-1,-1,-1,-1,-1,-1,-1,-1,-1,-1,-1,-1,-1,-1,-1,-1,-1,-1,-1,-1,-1,-1,-1,-1,-1,-1,-1,-1,-1,-1,-1,-1,-1,-1,-1,-1],"split_conditions":[2E0,1E0,9.1E1,1E0,9.5E1,1.7E1,1E0,9.5E1,1E0,1E0,1E0,1E0,1E0,1E0,2.024E3,-8.589247E-2,1E0,-1.3459018E-2,2.5446165E-2,1E0,1.3E1,1E0,2.023E3,3E0,2.025E3,3E0,1E0,1E0,1E0,-4.5014247E-2,2.025E3,1E0,-2.8337805E-2,2.4E1,4.1674655E-2,2.025E3,3.2E1,1E0,1E0,-2.0989275E-2,-6.8784766E-2,1E0,4.5140315E-2,1E0,7E0,1E0,2.025E3,3E0,4.469818E-2,3E0,3E0,-1.3830212E-2,3E0,1E0,-3.6215033E-2,1E0,2.025E3,1E0,1E0,3.6459867E-4,-2.7487038E-2,-7.230123E-2,4.3E1,1E0,8.509708E-2,2.025E3,-6.9255374E-2,1.3E1,-7.932802E-2,2.024E3,3.6085214E-2,-4.90331E-2,1E0,1E0,3.4E1,-3.9151102E-2,1E0,-4.2518646E-2,4.0230807E-2,1E0,1E0,2.025E3,7.145427E-2,2.025E3,2.025E3,-9.443387E-3,3E0,-6.64516E-2,1.4482315E-2,3.2141265E-3,-8.516122E-3,-6.2184196E-2,-0E0,-7.1458384E-2,-8.772164E-2,-2.3773586E-2,-6.2686615E-2,-8.880723E-3,2.3366833E-2,-5.4595497E-2,-4.8357375E-2,-7.128962E-2,-2.3752447E-2,4.5947235E-2,-9.148625E-4,-7.8558736E-4,-1.8815387E-2,-7.1553454E-2,-2.6835049E-2,-2.8013421E-2,-6.993151E-2,-5.3947037E-3,-1.4921275E-2,2.8301656E-2,-2.7199716E-3,5.2476715E-2,8.076217E-2,5.4079264E-2,5.12182E-2,-4.3008562E-2,-3.5826217E-2,-2.466843E-3,-1.2682261E-2,-2.8587094E-2,-4.9045213E-2],"split_indices":[1123,1123,1124,855,1125,1125,437,1125,360,178,437,142,486,99,1129,0,287,0,0,1059,1124,917,1129,1123,1129,1123,1018,287,123,0,1129,1013,0,1125,0,1129,1124,125,2,0,0,439,0,47,1124,524,1129,1123,0,1123,1123,0,1123,15,0,531,1129,40,289,0,0,0,1124,287,0,1129,0,1125,0,1129,0,0,18,218,1124,0,138,0,0,917,335,1129,0,1129,1129,0,1123,0,0,0,0,0,0,0,0,0,0,0,0,0,0,0,0,0,0,0,0,0,0,0,0,0,0,0,0,0,0,0,0,0,0,0,0,0,0],"split_type":[0,0,0,0,0,0,0,0,0,0,0,0,0,0,0,0,0,0,0,0,0,0,0,0,0,0,0,0,0,0,0,0,0,0,0,0,0,0,0,0,0,0,0,0,0,0,0,0,0,0,0,0,0,0,0,0,0,0,0,0,0,0,0,0,0,0,0,0,0,0,0,0,0,0,0,0,0,0,0,0,0,0,0,0,0,0,0,0,0,0,0,0,0,0,0,0,0,0,0,0,0,0,0,0,0,0,0,0,0,0,0,0,0,0,0,0,0,0,0,0,0,0,0,0,0],"sum_hessian":[2.1260793E4,8.579564E3,1.26812295E4,2.033428E3,6.546136E3,1.0113777E3,1.1669852E4,1.9557443E3,7.7683624E1,7.484265E2,5.79771E3,5.3436383E2,4.7701382E2,1.0785424E4,8.844282E2,3.8640662E2,1.5693376E3,1.724789E1,6.0435734E1,6.8723425E2,6.1192295E1,5.429037E3,3.686727E2,3.6975034E2,1.6461353E2,4.485876E2,2.8426254E1,1.0349471E4,4.3595312E2,1.4228563E2,7.421426E2,1.476444E3,9.289372E1,6.8175134E2,5.4828577E0,3.5490158E1,2.5702137E1,4.926239E3,5.0279825E2,1.0473179E1,3.5819952E2,3.53008E2,1.6742327E1,7.4921684E1,8.969184E1,4.2159952E2,2.6988077E1,1.670634E1,1.1719913E1,8.540063E3,1.8094067E3,3.6462315E1,3.9949078E2,3.3612695E2,4.0601562E2,1.4552175E3,2.1226486E1,3.2349118E2,3.582602E2,1.6498583E1,1.8991575E1,5.2460275E0,2.045611E1,4.8434893E3,8.274935E1,4.871267E2,1.5671542E1,3.199615E2,3.3046497E1,4.4230976E1,3.0690706E1,9.711705E0,7.998013E1,3.8193018E2,3.966933E1,1.0242512E1,1.6745565E1,1.1464546E1,5.241795E0,8.0617285E3,4.7833505E2,1.7820969E3,2.7309742E1,3.872403E2,1.2250507E1,1.273782E1,3.2338913E2,1.4452594E3,9.958073E0,1.4484197E1,6.7422895E0,3.1653055E2,6.960629E0,1.827644E2,1.7549579E2,1.348274E1,6.973369E0,4.164606E3,6.7888354E2,2.2028302E2,2.668437E2,4.4830524E1,2.7513098E2,1.0995691E1,3.3235287E1,6.723005E1,1.2750085E1,3.7195416E2,9.976023E0,2.494733E1,1.4722001E1,8.746238E0,7.999327E0,7.478729E3,5.829996E2,4.1368887E2,6.464618E1,8.008757E2,9.8122125E2,9.810367E1,2.8913663E2,5.749913E0,6.500594E0,3.1790073E2,5.4884014E0],"tree_param":{"num_deleted":"0","num_feature":"1130","num_nodes":"125","size_leaf_vector":"1"}},{"base_weights":[5.17573E-4,-5.373073E-1,3.6663064E-1,-1.2068229E0,-3.3098662E-1,4.5467553E-1,-7.1142346E-1,-1.274455E0,1.8277916E-1,-2.6325202E-1,-1.363316E0,5.107215E-1,-7.134612E-1,-7.8145653E-1,-5.667493E-1,-1.3125966E0,-5.81709E-1,3.8427314E-1,-7.185104E-2,-1.6930757E-1,-1.1156473E0,-8.541956E-1,-6.9018364E-2,4.21008E-1,9.478613E-1,-7.72096E-1,4.6238878E-1,-7.0201534E-1,-4.3374266E-2,-8.637472E-1,-4.703359E-1,-1.3232961E0,1.9483505E-2,-5.5255926E-1,-4.3874856E-2,4.863481E-1,-1.2848094E-2,5.447906E-4,-5.102689E-1,-1.0930693E0,-7.368964E-2,-1.21121975E-2,-7.310222E-2,4.6328077E-1,-4.397212E-2,5.0133087E-2,9.0247E-1,-4.051025E-2,-5.485699E-1,-2.194079E-2,4.0681284E-2,-4.491714E-2,-6.3382536E-1,-5.9698958E-2,-3.7516132E-2,-1.703043E-2,-2.8438563E-2,-1.3336027E0,3.3456613E-3,-2.3493476E-2,-3.18909E-2,2.741552E-2,3.0475014E-1,-3.983695E-2,8.015083E-2,-6.8374956E-1,-3.4389627E-1,-5.8711845E-2,-5.1050115E-2,5.414253E-1,2.1085818E-1,-2.0009664E-1,8.464993E-1,4.4628907E-2,6.926078E-2,-1.4508872E-2,-5.676263E-1,-0E0,-2.6834754E-3,-3.1142956E-2,-4.7129318E-2,-6.710741E-2,7.1202465E-3,2.128514E-2,5.2318233E-3,7.7744265E-4,-5.340604E-2,-3.206709E-2,-5.685207E-2,-3.828114E-2,-1.5563774E-2,2.8215185E-2,-3.199338E-2,9.105532E-3,3.9536227E-2,-1.6750257E-2,-5.092827E-3,7.917437E-3,4.4846486E-2,-2.4815824E-2,-3.356693E-2],"categories":[],"categories_nodes":[],"categories_segments":[],"categories_sizes":[],"default_left":[0,0,0,0,0,0,0,0,0,0,0,0,0,0,0,0,0,0,0,0,0,0,0,0,0,0,0,0,0,0,0,0,0,0,0,0,0,0,0,0,0,0,0,0,0,0,0,0,0,0,0,0,0,0,0,0,0,0,0,0,0,0,0,0,0,0,0,0,0,0,0,0,0,0,0,0,0,0,0,0,0,0,0,0,0,0,0,0,0,0,0,0,0,0,0,0,0,0,0,0,0],"id":3,"left_children":[1,3,5,7,9,11,13,15,17,19,21,23,25,27,29,31,33,35,-1,37,39,41,-1,43,45,47,49,51,-1,53,55,57,-1,59,-1,61,-1,63,65,67,-1,-1,-1,69,71,-1,73,-1,75,77,-1,-1,79,-1,-1,-1,-1,81,-1,-1,-1,-1,83,85,-1,87,89,-1,-1,91,93,95,97,-1,-1,-1,99,-1,-1,-1,-1,-1,-1,-1,-1,-1,-1,-1,-1,-1,-1,-1,-1,-1,-1,-1,-1,-1,-1,-1,-1],"loss_changes":[4.1743296E3,1.1855071E3,1.1975433E3,1.903894E2,4.5853772E2,7.638413E2,9.074799E0,5.000293E1,3.134124E1,4.9313602E2,2.1038208E0,4.3590063E2,3.7221832E1,3.599945E0,8.475899E0,3.3883545E1,2.5652313E-1,5.713418E0,0E0,3.2156918E2,3.0765991E0,5.3906994E0,0E0,1.8159827E2,3.6159668E0,3.7583008E0,4.506327E0,3.8020935E0,0E0,1.7455444E0,2.781849E0,2.6233643E1,0E0,2.6901627E-1,0E0,5.783787E-1,0E0,2.4007063E2,5.2948578E1,1.970398E0,0E0,0E0,0E0,1.6681128E2,1.0720693E2,0E0,3.5353394E0,0E0,1.3193321E-1,1.2346111E-2,0E0,0E0,1.184845E-1,0E0,0E0,0E0,0E0,2.304712E1,0E0,0E0,0E0,0E0,4.2148423E-1,2.060796E2,0E0,1.644168E1,1.2650581E1,0E0,0E0,1.7504797E2,3.3153587E1,8.621305E0,3.7439575E0,0E0,0E0,0E0,7.457733E-2,0E0,0E0,0E0,0E0,0E0,0E0,0E0,0E0,0E0,0E0,0E0,0E0,0E0,0E0,0E0,0E0,0E0,0E0,0E0,0E0,0E0,0E0,0E0,0E0],"parents":[2147483647,0,0,1,1,2,2,3,3,4,4,5,5,6,6,7,7,8,8,9,9,10,10,11,11,12,12,13,13,14,14,15,15,16,16,17,17,19,19,20,20,21,21,23,23,24,24,25,25,26,26,27,27,29,29,30,30,31,31,33,33,35,35,37,37,38,38,39,39,43,43,44,44,46,46,48,48,49,49,52,52,57,57,62,62,63,63,65,65,66,66,69,69,70,70,71,71,72,72,76,76],"right_children":[2,4,6,8,10,12,14,16,18,20,22,24,26,28,30,32,34,36,-1,38,40,42,-1,44,46,48,50,52,-1,54,56,58,-1,60,-1,62,-1,64,66,68,-1,-1,-1,70,72,-1,74,-1,76,78,-1,-1,80,-1,-1,-1,-1,82,-1,-1,-1,-1,84,86,-1,88,90,-1,-1,92,94,96,98,-1,-1,-1,100,-1,-1,-1,-1,-1,-1,-1,-1,-1,-1,-1,-1,-1,-1,-1,-1,-1,-1,-1,-1,-1,-1,-1,-1],"split_conditions":[2E0,1E0,1E0,1E0,1E0,1E0,1E2,1E0,1E0,1E0,2.023E3,1E0,3E0,2.025E3,2.024E3,1E0,5E1,5E1,-7.185104E-2,1E0,1E0,5E1,-6.9018364E-2,1E0,2.025E3,1E0,1E0,2.024E3,-4.3374266E-2,2.023E3,2.025E3,1E0,1.9483505E-2,2.025E3,-4.3874856E-2,1E0,-1.2848094E-2,1E0,1E0,2.025E3,-7.368964E-2,-1.21121975E-2,-7.310222E-2,1E0,3E0,5.0133087E-2,3E0,-4.051025E-2,2.024E3,2.025E3,4.0681284E-2,-4.491714E-2,3E0,-5.9698958E-2,-3.7516132E-2,-1.703043E-2,-2.8438563E-2,1E0,3.3456613E-3,-2.3493476E-2,-3.18909E-2,2.741552E-2,2.025E3,1E0,8.015083E-2,1E0,2.024E3,-5.8711845E-2,-5.1050115E-2,1E0,3E0,2.025E3,2.024E3,4.4628907E-2,6.926078E-2,-1.4508872E-2,5E1,-0E0,-2.6834754E-3,-3.1142956E-2,-4.7129318E-2,-6.710741E-2,7.1202465E-3,2.128514E-2,5.2318233E-3,7.7744265E-4,-5.340604E-2,-3.206709E-2,-5.685207E-2,-3.828114E-2,-1.5563774E-2,2.8215185E-2,-3.199338E-2,9.105532E-3,3.9536227E-2,-1.6750257E-2,-5.092827E-3,7.917437E-3,4.4846486E-2,-2.4815824E-2,-3.356693E-2],"split_indices":[1123,1123,879,486,372,439,1126,157,18,917,1129,287,1123,1129,1129,595,1126,1126,0,38,38,1126,0,917,1129,36,36,1129,0,1129,1129,108,0,1129,0,393,0,125,189,1129,0,0,0,630,1123,0,1123,0,1129,1129,0,0,1123,0,0,0,0,531,0,0,0,0,1129,46,0,136,1129,0,0,371,1123,1129,1129,0,0,0,1126,0,0,0,0,0,0,0,0,0,0,0,0,0,0,0,0,0,0,0,0,0,0,0,0],"split_type":[0,0,0,0,0,0,0,0,0,0,0,0,0,0,0,0,0,0,0,0,0,0,0,0,0,0,0,0,0,0,0,0,0,0,0,0,0,0,0,0,0,0,0,0,0,0,0,0,0,0,0,0,0,0,0,0,0,0,0,0,0,0,0,0,0,0,0,0,0,0,0,0,0,0,0,0,0,0,0,0,0,0,0,0,0,0,0,0,0,0,0,0,0,0,0,0,0,0,0,0,0],"sum_hessian":[2.119783E4,8.585248E3,1.2612582E4,2.0211698E3,6.564078E3,1.1660905E4,9.516775E2,1.9275122E3,9.36575E1,6.161175E3,4.0290353E2,1.112766E4,5.332449E2,6.378284E2,3.1384906E2,1.8259395E3,1.0157286E2,8.4029236E1,9.628263E0,5.550732E3,6.10443E2,1.4902448E1,3.880011E2,9.234642E3,1.8930188E3,5.0832523E2,2.4919653E1,3.369775E2,3.0085092E2,7.471039E1,2.3913867E2,1.814814E3,1.1125467E1,9.537944E1,6.193419E0,7.283284E1,1.1196398E1,3.70551E3,1.8452217E3,5.783162E2,3.212677E1,8.205053E0,6.697394E0,8.465257E3,7.69384E2,8.470706E2,1.0459481E3,4.316595E2,7.666572E1,1.0749592E1,1.4170062E1,8.3353065E1,2.5362442E2,1.6439379E1,5.8271008E1,1.0553321E2,1.3360545E2,1.8015702E3,1.3243752E1,5.2319977E1,4.3059464E1,5.2387787E1,2.0445055E1,3.615318E3,9.019205E1,9.014979E2,9.437237E2,2.6413962E2,3.1417657E2,6.4629326E3,2.0023245E3,6.553674E2,1.1401662E2,1.0279409E3,1.8007183E1,6.7407165E0,6.9925E1,5.49968E0,5.2499113E0,2.4815201E2,5.472425E0,1.7913574E3,1.0212744E1,1.172887E1,8.716184E0,3.4313833E3,1.8393478E2,8.267836E2,7.4714294E1,6.592312E1,8.778006E2,6.3407373E3,1.2219561E2,1.9091621E3,9.316236E1,2.7470288E2,3.806645E2,8.203138E0,1.0581348E2,4.5434875E1,2.4490128E1],"tree_param":{"num_deleted":"0","num_feature":"1130","num_nodes":"101","size_leaf_vector":"1"}},{"base_weights":[-3.9196014E-3,-1.1000044E0,1.208244E-1,-7.742155E-1,-1.3858758E0,2.4648853E-1,-9.866028E-1,-8.7988746E-1,6.533364E-2,-1.4291052E0,-4.701192E-1,3.057594E-1,-8.280602E-1,-4.9085613E-2,-6.634655E-2,-8.5912116E-2,-8.142355E-1,1.4085968E-2,2.413136E-3,-1.4389349E0,2.262195E-2,-1.8896537E-1,-7.311695E-2,3.6946288E-1,-4.3779436E-1,-4.4493515E-2,-2.7305424E-2,-7.25657E-1,-7.121122E-2,-1.4675732E0,-9.91971E-1,7.524881E-2,-9.1205424E-1,5.020401E-1,1.2156969E-1,-4.5468742E-1,2.368421E-2,-6.344556E-1,-7.2490945E-2,-1.4892572E0,-8.981402E-1,-6.7357785E-1,-7.7848785E-2,-2.7581368E-2,3.3408704E-1,-6.048273E-2,-2.1958482E-2,5.3636885E-1,-1.9755146E-2,1.5670484E-1,-7.4817365E-1,-2.2290653E-2,-6.984415E-2,-2.8036267E-2,-6.056769E-2,-7.573898E-2,-5.2859325E-2,-5.2672118E-2,-1.5211748E-2,-6.1678737E-2,-2.1335227E-2,2.6615828E-3,4.114042E-2,2.2476729E-2,3.8364492E-2,2.1258807E-3,1.2650775E-2,-3.910322E-2,1.2916683E-2],"categories":[],"categories_nodes":[],"categories_segments":[],"categories_sizes":[],"default_left":[0,0,0,0,0,0,0,0,0,0,0,0,0,0,0,0,0,0,0,0,0,0,0,0,0,0,0,0,0,0,0,0,0,0,0,0,0,0,0,0,0,0,0,0,0,0,0,0,0,0,0,0,0,0,0,0,0,0,0,0,0,0,0,0,0,0,0,0,0],"id":4,"left_children":[1,3,5,7,9,11,13,15,17,19,21,23,25,-1,-1,-1,27,-1,-1,29,-1,31,-1,33,35,-1,-1,37,-1,39,41,43,45,47,49,51,-1,53,-1,55,57,59,-1,-1,61,-1,-1,63,-1,65,67,-1,-1,-1,-1,-1,-1,-1,-1,-1,-1,-1,-1,-1,-1,-1,-1,-1,-1],"loss_changes":[2.8989587E3,2.0047876E2,2.6491465E3,9.018237E1,4.476172E1,1.0890342E3,1.6953125E0,4.797473E1,3.7559167E-1,2.1093018E1,1.4496109E1,7.6764636E2,1.4948425E1,0E0,0E0,0E0,4.4040466E1,0E0,0E0,1.2308594E1,0E0,8.357993E0,0E0,4.9039075E2,1.99068E1,0E0,0E0,4.735434E1,0E0,1.1096191E1,1.1177101E1,5.400085E0,9.4641685E-1,2.9969727E2,1.5903394E2,9.697601E0,0E0,2.6956207E1,0E0,9.0251465E0,3.264183E0,5.68577E0,0E0,0E0,3.1053908E0,0E0,0E0,1.8733838E2,0E0,5.4960915E1,7.146988E0,0E0,0E0,0E0,0E0,0E0,0E0,0E0,0E0,0E0,0E0,0E0,0E0,0E0,0E0,0E0,0E0,0E0,0E0],"parents":[2147483647,0,0,1,1,2,2,3,3,4,4,5,5,6,6,7,7,8,8,9,9,10,10,11,11,12,12,16,16,19,19,21,21,23,23,24,24,27,27,29,29,30,30,31,31,32,32,33,33,34,34,35,35,37,37,39,39,40,40,41,41,44,44,47,47,49,49,50,50],"right_children":[2,4,6,8,10,12,14,16,18,20,22,24,26,-1,-1,-1,28,-1,-1,30,-1,32,-1,34,36,-1,-1,38,-1,40,42,44,46,48,50,52,-1,54,-1,56,58,60,-1,-1,62,-1,-1,64,-1,66,68,-1,-1,-1,-1,-1,-1,-1,-1,-1,-1,-1,-1,-1,-1,-1,-1,-1,-1],"split_conditions":[9.7E1,1.6E1,1E0,1E0,1E0,1E0,1E0,6E0,9E0,1E0,1E0,1E0,1E0,-4.9085613E-2,-6.634655E-2,-8.5912116E-2,1E0,1.4085968E-2,2.413136E-3,1E0,2.262195E-2,3.4E1,-7.311695E-2,1E0,2E0,-4.4493515E-2,-2.7305424E-2,1E0,-7.121122E-2,1E0,4.3E1,3.2E1,5.6E1,1E0,1E0,1E0,2.368421E-2,1E0,-7.2490945E-2,1E0,3.4E1,3.1E1,-7.7848785E-2,-2.7581368E-2,1E0,-6.048273E-2,-2.1958482E-2,1E0,-1.9755146E-2,1E0,2E0,-2.2290653E-2,-6.984415E-2,-2.8036267E-2,-6.056769E-2,-7.573898E-2,-5.2859325E-2,-5.2672118E-2,-1.5211748E-2,-6.1678737E-2,-2.1335227E-2,2.6615828E-3,4.114042E-2,2.2476729E-2,3.8364492E-2,2.1258807E-3,1.2650775E-2,-3.910322E-2,1.2916683E-2],"split_indices":[1125,1124,437,178,486,808,1128,1124,1124,37,524,89,36,0,0,0,437,0,0,157,0,1125,0,38,1127,0,0,46,0,22,1124,1124,1124,765,1018,1128,0,89,0,166,1124,1124,0,0,136,0,0,287,0,20,1127,0,0,0,0,0,0,0,0,0,0,0,0,0,0,0,0,0,0],"split_type":[0,0,0,0,0,0,0,0,0,0,0,0,0,0,0,0,0,0,0,0,0,0,0,0,0,0,0,0,0,0,0,0,0,0,0,0,0,0,0,0,0,0,0,0,0,0,0,0,0,0,0,0,0,0,0,0,0,0,0,0,0,0,0,0,0,0,0,0,0],"sum_hessian":[2.1199379E4,2.1654304E3,1.903395E4,1.0139527E3,1.1514778E3,1.709498E4,1.9389673E3,9.006599E2,1.1329278E2,1.0989318E3,5.2546124E1,1.6202101E4,8.9288043E2,1.9156184E3,2.3348928E1,6.347021E1,8.371897E2,6.722292E0,1.0657049E2,1.0935073E3,5.4244323E0,4.1950367E1,1.05957575E1,1.4924124E4,1.2779769E3,7.3027686E2,1.626036E2,7.330889E2,1.04100746E2,1.0253058E3,6.820145E1,3.127883E1,1.0671537E1,9.722791E3,5.201333E3,1.2553219E3,2.2654915E1,6.5287915E2,8.0209785E1,9.859692E2,3.933667E1,4.5135628E1,2.3065823E1,8.69735E0,2.258148E1,5.4636183E0,5.2079186E0,9.364959E3,3.57832E2,5.000271E3,2.0106189E2,1.2451731E3,1.0148801E1,5.80796E2,7.2083145E1,9.283919E2,5.757725E1,3.0435787E1,8.900884E0,1.246307E1,3.2672558E1,1.517458E1,7.4069E0,6.8082144E3,2.5567444E3,2.2889456E3,2.7113254E3,1.9482419E2,6.2376966E0],"tree_param":{"num_deleted":"0","num_feature":"1130","num_nodes":"69","size_leaf_vector":"1"}},{"base_weights":[-5.5298157E-4,-5.167391E-1,3.493444E-1,-1.1514244E0,-3.224092E-1,-7.2482073E-1,4.4157714E-1,-1.2050762E0,3.4257668E-1,-1.2389337E0,-2.0239566E-1,-3.4816745E-1,-1.1407682E0,5.276942E-1,-6.0393316E-1,-7.801806E-2,-1.1174617E0,-1.6861906E-2,4.2798582E-1,-1.30402E0,-4.581663E-1,-1.3389112E-1,-1.2220517E0,-4.5978364E-1,3.3266005E-1,-1.2149837E0,-2.5517097E-2,5.746258E-1,-5.913574E-1,-7.9809004E-1,-5.6371534E-1,-9.879419E-1,-6.399196E-2,6.378967E-3,2.2567874E-2,-1.3218693E0,2.297755E-2,-5.3616237E-2,-3.46504E-2,-5.0455675E-2,-9.4688827E-1,-3.318205E-2,-6.1876494E-2,-8.333951E-2,-3.8417724E-1,3.474957E-2,1.3493062E-3,-1.2534127E0,-5.8360004E-1,2.1656725E-1,-4.890487E-2,4.965026E-1,9.5049596E-1,-3.3371758E-2,-2.8238673E-2,-4.9360495E-2,-3.7316192E-2,-4.5276478E-1,-3.268403E-2,-1.0166233E0,-3.259869E-1,-1.3737438E0,-8.159377E-1,1.0281599E-2,-3.5174042E-2,-7.719364E-2,7.935514E-2,-5.0280113E-2,-8.948416E-1,-2.939577E-1,-6.861413E-2,-1.2763762E0,-1.2620324E-2,-7.8681654E-1,-1.44487815E-2,5.6940097E-1,-3.3935145E-2,4.6392167E-1,1.0362458E0,9.4191796E-1,7.321165E-2,-4.3961972E-1,-5.17791E-2,-5.342647E-2,-2.8706172E-2,-5.042768E-3,-5.8876235E-2,-6.9773756E-2,-5.0053257E-3,-2.4769406E-3,-4.4248305E-2,-7.6779462E-3,1.983222E-2,-4.376396E-2,-6.1974864E-2,-1.0461006E-2,-5.0742824E-2,-6.543689E-2,-3.9734676E-2,-4.924834E-2,-2.4824796E-2,9.973094E-3,4.4927187E-2,2.0672074E-2,4.44229E-2,4.801474E-2,7.560071E-2,4.9593184E-2,4.4995245E-2,-5.5435183E-3,-2.2531813E-2],"categories":[],"categories_nodes":[],"categories_segments":[],"categories_sizes":[],"default_left":[0,0,0,0,0,0,0,0,0,0,0,0,0,0,0,0,0,0,0,0,0,0,0,0,0,0,0,0,0,0,0,0,0,0,0,0,0,0,0,0,0,0,0,0,0,0,0,0,0,0,0,0,0,0,0,0,0,0,0,0,0,0,0,0,0,0,0,0,0,0,0,0,0,0,0,0,0,0,0,0,0,0,0,0,0,0,0,0,0,0,0,0,0,0,0,0,0,0,0,0,0,0,0,0,0,0,0,0,0,0,0],"id":5,"left_children":[1,3,5,7,9,11,13,15,17,19,21,23,25,27,29,-1,31,-1,33,35,37,39,41,43,45,47,49,51,53,55,57,59,-1,-1,-1,61,-1,63,-1,65,67,-1,-1,-1,69,-1,-1,71,73,75,-1,77,79,-1,-1,-1,-1,81,-1,83,85,87,89,-1,-1,91,-1,-1,93,95,-1,97,-1,99,-1,101,-1,103,105,107,-1,109,-1,-1,-1,-1,-1,-1,-1,-1,-1,-1,-1,-1,-1,-1,-1,-1,-1,-1,-1,-1,-1,-1,-1,-1,-1,-1,-1,-1,-1],"loss_changes":[3.810535E3,1.0507698E3,1.2460554E3,1.6061157E2,7.175559E2,1.5527502E2,1.0429839E3,5.8020752E1,4.2155123E0,3.761548E1,4.0292755E2,3.9948402E1,3.8918274E1,5.6228564E2,6.2984924E0,0E0,3.1123657E1,0E0,3.2490635E-1,2.2623169E1,5.56843E0,3.668593E2,2.1278076E0,4.025007E1,8.126159E0,9.821777E0,7.335329E0,3.009485E2,3.7167358E-1,5.4328156E-1,6.921997E0,1.6002686E1,0E0,0E0,0E0,1.6768555E1,0E0,4.1030974E0,0E0,2.1487059E2,4.4848633E-1,0E0,0E0,0E0,3.7331203E1,0E0,0E0,9.089905E0,1.3060989E0,8.304983E0,0E0,1.4893091E2,6.1624756E0,0E0,0E0,0E0,0E0,1.9446411E0,0E0,1.8303772E1,6.969145E0,1.698645E1,3.3970947E0,0E0,0E0,1.7481686E2,0E0,0E0,5.7014465E-1,2.354737E1,0E0,5.085022E0,0E0,2.5100803E-1,0E0,1.9794316E0,0E0,1.7143518E2,1.5760437E1,2.5690918E0,0E0,1.0784645E0,0E0,0E0,0E0,0E0,0E0,0E0,0E0,0E0,0E0,0E0,0E0,0E0,0E0,0E0,0E0,0E0,0E0,0E0,0E0,0E0,0E0,0E0,0E0,0E0,0E0,0E0,0E0,0E0,0E0],"parents":[2147483647,0,0,1,1,2,2,3,3,4,4,5,5,6,6,7,7,8,8,9,9,10,10,11,11,12,12,13,13,14,14,16,16,18,18,19,19,20,20,21,21,22,22,23,23,24,24,25,25,26,26,27,27,28,28,29,29,30,30,31,31,35,35,37,37,39,39,40,40,44,44,47,47,48,48,49,49,51,51,52,52,57,57,59,59,60,60,61,61,62,62,65,65,68,68,69,69,71,71,73,73,75,75,77,77,78,78,79,79,81,81],"right_children":[2,4,6,8,10,12,14,16,18,20,22,24,26,28,30,-1,32,-1,34,36,38,40,42,44,46,48,50,52,54,56,58,60,-1,-1,-1,62,-1,64,-1,66,68,-1,-1,-1,70,-1,-1,72,74,76,-1,78,80,-1,-1,-1,-1,82,-1,84,86,88,90,-1,-1,92,-1,-1,94,96,-1,98,-1,100,-1,102,-1,104,106,108,-1,110,-1,-1,-1,-1,-1,-1,-1,-1,-1,-1,-1,-1,-1,-1,-1,-1,-1,-1,-1,-1,-1,-1,-1,-1,-1,-1,-1,-1,-1],"split_conditions":[2E0,1E0,9.1E1,1E0,9.5E1,1.7E1,1E0,9.5E1,1E0,1E0,1E0,1E0,1E0,1E0,2.024E3,-7.801806E-2,1E0,-1.6861906E-2,2.024E3,1E0,2.025E3,1E0,2.023E3,6E0,2.025E3,3E0,4.3E1,1E0,2.025E3,2.023E3,2.025E3,1E0,-6.399196E-2,6.378967E-3,2.2567874E-2,1E0,2.297755E-2,1.3E1,-3.46504E-2,1E0,2.025E3,-3.318205E-2,-6.1876494E-2,-8.333951E-2,1E0,3.474957E-2,1.3493062E-3,1E0,1E0,1E0,-4.890487E-2,3E0,3E0,-3.3371758E-2,-2.8238673E-2,-4.9360495E-2,-3.7316192E-2,3E0,-3.268403E-2,1E0,1E0,1E0,7E0,1.0281599E-2,-3.5174042E-2,1E0,7.935514E-2,-5.0280113E-2,1E0,1E0,-6.861413E-2,1E0,-1.2620324E-2,2.025E3,-1.44487815E-2,1E0,-3.3935145E-2,1E0,1E0,2.025E3,7.321165E-2,1E0,-5.17791E-2,-5.342647E-2,-2.8706172E-2,-5.042768E-3,-5.8876235E-2,-6.9773756E-2,-5.0053257E-3,-2.4769406E-3,-4.4248305E-2,-7.6779462E-3,1.983222E-2,-4.376396E-2,-6.1974864E-2,-1.0461006E-2,-5.0742824E-2,-6.543689E-2,-3.9734676E-2,-4.924834E-2,-2.4824796E-2,9.973094E-3,4.4927187E-2,2.0672074E-2,4.44229E-2,4.801474E-2,7.560071E-2,4.9593184E-2,4.4995245E-2,-5.5435183E-3,-2.2531813E-2],"split_indices":[1123,1123,1124,217,1125,1125,437,1125,360,178,437,178,486,99,1129,0,437,0,1129,37,1129,917,1129,1124,1129,1123,1124,287,1129,1129,1129,943,0,0,0,22,0,1124,0,216,1129,0,0,0,46,0,0,218,89,67,0,1123,1123,0,0,0,0,1123,0,43,52,153,1124,0,0,287,0,0,2,437,0,166,0,1129,0,1018,0,486,335,1129,0,15,0,0,0,0,0,0,0,0,0,0,0,0,0,0,0,0,0,0,0,0,0,0,0,0,0,0,0,0,0],"split_type":[0,0,0,0,0,0,0,0,0,0,0,0,0,0,0,0,0,0,0,0,0,0,0,0,0,0,0,0,0,0,0,0,0,0,0,0,0,0,0,0,0,0,0,0,0,0,0,0,0,0,0,0,0,0,0,0,0,0,0,0,0,0,0,0,0,0,0,0,0,0,0,0,0,0,0,0,0,0,0,0,0,0,0,0,0,0,0,0,0,0,0,0,0,0,0,0,0,0,0,0,0,0,0,0,0,0,0,0,0,0,0],"sum_hessian":[2.1095793E4,8.522615E3,1.2573179E4,1.9965153E3,6.5261E3,9.93594E2,1.1579584E4,1.9275542E3,6.896101E1,7.544359E2,5.771664E3,5.2251654E2,4.7107742E2,1.0698922E4,8.8066284E2,3.7775848E2,1.5497958E3,7.237191E0,6.1723824E1,6.956471E2,5.8788795E1,5.4094644E3,3.621999E2,4.4932492E2,7.319166E1,4.4151712E2,2.9560305E1,1.0268836E4,4.3008557E2,1.474581E2,7.332047E2,8.664089E2,6.833869E2,5.230547E0,5.6493275E1,6.88981E2,6.6660614E0,2.2200033E1,3.658876E1,4.907053E3,5.0241104E2,1.112632E1,3.5107355E2,2.516789E1,4.24157E2,3.275942E1,4.043224E1,4.1510812E2,2.6409021E1,2.4102644E1,5.4576607E0,8.503917E3,1.7649191E3,1.0415304E2,3.2593256E2,2.7390154E1,1.2006794E2,3.315103E2,4.016944E2,8.2976965E2,3.6639233E1,6.231726E2,6.580843E1,1.6247982E1,5.9520516E0,4.829216E3,7.783726E1,2.2657175E2,2.758393E2,3.8995102E2,3.4205997E1,4.0543234E2,9.675762E0,1.4439452E1,1.1969568E1,1.763014E1,6.472503E0,8.0217393E3,4.821775E2,1.738912E3,2.6007063E1,3.2608163E2,5.4286747E0,7.4118616E2,8.85835E1,2.9955423E1,6.68381E0,6.1254694E2,1.0625648E1,5.699139E0,6.0109295E1,4.1597104E3,6.6950555E2,2.646478E2,1.1191499E1,3.5021423E2,3.973677E1,3.7810504E2,2.7327316E1,6.9552245E0,7.484228E0,9.199836E0,8.4303055E0,7.1712407E3,8.504987E2,4.1858395E2,6.3593525E1,7.8303705E2,9.55875E2,1.1225879E1,3.1485577E2],"tree_param":{"num_deleted":"0","num_feature":"1130","num_nodes":"111","size_leaf_vector":"1"}},{"base_weights":[1.2156331E-3,-4.8295367E-1,3.278975E-1,-1.0881181E0,-2.9935578E-1,4.0951505E-1,-6.2021387E-1,-1.1474439E0,3.7728295E-1,-1.7601937E-1,-8.159085E-1,4.5957705E-1,-6.265838E-1,-6.714644E-1,-5.1178724E-1,-1.1796759E0,-2.9631047E-2,-1.4594828E-2,2.8240344E-2,-7.88156E-2,-4.821673E-2,-1.2377237E0,-5.9407014E-1,3.8183007E-1,8.437103E-1,-6.8528193E-1,4.9267644E-1,-6.593351E-1,-5.2236654E-2,-5.474333E-2,-2.4901735E-2,-1.1909546E0,-7.466588E-3,-1.0804512E-1,7.299298E-2,-5.9892267E-2,-6.816079E-2,-5.510803E-1,-3.7267487E-2,4.2006588E-1,-2.7743835E-2,8.2153857E-1,4.6999212E-2,-6.463267E-1,-4.0827345E-2,4.048836E-2,1.6792028E-3,-2.558424E-2,-3.3255246E-2,-1.1960255E0,2.203465E-2,-1.5038791E-1,7.139689E-1,-2.849777E-2,-2.4806436E-3,5.444434E-1,2.6468298E-1,-1.6779073E-1,8.229661E-1,4.0814284E-2,5.623584E-2,-2.0273827E-2,-3.3992704E-2,-6.014728E-2,4.3998075E-6,-1.1877163E-2,1.42030595E-2,3.9665308E-2,6.710291E-3,2.8233454E-2,-4.6898838E-2,1.4873556E-2,-3.409442E-2,-9.624895E-3,2.8261676E-2,3.6608513E-2,5.9411388E-2],"categories":[],"categories_nodes":[],"categories_segments":[],"categories_sizes":[],"default_left":[0,0,0,0,0,0,0,0,0,0,0,0,0,0,0,0,0,0,0,0,0,0,0,0,0,0,0,0,0,0,0,0,0,0,0,0,0,0,0,0,0,0,0,0,0,0,0,0,0,0,0,0,0,0,0,0,0,0,0,0,0,0,0,0,0,0,0,0,0,0,0,0,0,0,0,0,0],"id":6,"left_children":[1,3,5,7,9,11,13,15,17,19,21,23,25,27,29,31,-1,-1,-1,33,-1,35,37,39,41,43,45,47,-1,-1,-1,49,-1,51,-1,-1,-1,53,-1,55,57,59,-1,61,-1,-1,-1,-1,-1,63,-1,65,67,-1,-1,69,71,73,75,-1,-1,-1,-1,-1,-1,-1,-1,-1,-1,-1,-1,-1,-1,-1,-1,-1,-1],"loss_changes":[3.3250608E3,9.405537E2,9.7159827E2,1.7185352E2,4.1384344E2,5.998025E2,5.0685425E0,3.3003418E1,9.901543E0,4.019773E2,1.1626886E2,3.288623E2,3.5378952E1,2.1831055E0,1.8956909E0,2.048169E1,0E0,0E0,0E0,2.1020462E2,0E0,2.65625E-1,4.810608E0,1.4369507E2,3.0112305E0,1.9185486E0,3.8277106E0,9.899902E-2,0E0,0E0,0E0,1.5245605E1,0E0,1.5971509E2,0E0,0E0,0E0,6.015503E0,0E0,1.6191272E2,9.346531E1,1.3030396E0,0E0,2.8164978E0,0E0,0E0,0E0,0E0,0E0,1.472583E1,0E0,1.6528233E2,1.0139709E1,0E0,0E0,1.4016357E2,1.15997314E2,1.2278688E1,2.615059E0,0E0,0E0,0E0,0E0,0E0,0E0,0E0,0E0,0E0,0E0,0E0,0E0,0E0,0E0,0E0,0E0,0E0,0E0],"parents":[2147483647,0,0,1,1,2,2,3,3,4,4,5,5,6,6,7,7,8,8,9,9,10,10,11,11,12,12,13,13,14,14,15,15,19,19,21,21,22,22,23,23,24,24,25,25,26,26,27,27,31,31,33,33,37,37,39,39,40,40,41,41,43,43,49,49,51,51,52,52,55,55,56,56,57,57,58,58],"right_children":[2,4,6,8,10,12,14,16,18,20,22,24,26,28,30,32,-1,-1,-1,34,-1,36,38,40,42,44,46,48,-1,-1,-1,50,-1,52,-1,-1,-1,54,-1,56,58,60,-1,62,-1,-1,-1,-1,-1,64,-1,66,68,-1,-1,70,72,74,76,-1,-1,-1,-1,-1,-1,-1,-1,-1,-1,-1,-1,-1,-1,-1,-1,-1,-1],"split_conditions":[2E0,1E0,1E0,1E0,1E0,1E0,1E2,1E0,1E0,1E0,1E0,1E0,3E0,3E0,1E0,1E0,-2.9631047E-2,-1.4594828E-2,2.8240344E-2,1E0,-4.821673E-2,5E1,5E1,1E0,5E1,5E1,1E0,1E0,-5.2236654E-2,-5.474333E-2,-2.4901735E-2,1E0,-7.466588E-3,1E0,7.299298E-2,-5.9892267E-2,-6.816079E-2,2E0,-3.7267487E-2,1E0,3E0,3E0,4.6999212E-2,1E0,-4.0827345E-2,4.048836E-2,1.6792028E-3,-2.558424E-2,-3.3255246E-2,1E0,2.203465E-2,1E0,5E1,-2.849777E-2,-2.4806436E-3,1E0,1E0,2E0,1E2,4.0814284E-2,5.623584E-2,-2.0273827E-2,-3.3992704E-2,-6.014728E-2,4.3998075E-6,-1.1877163E-2,1.42030595E-2,3.9665308E-2,6.710291E-3,2.8233454E-2,-4.6898838E-2,1.4873556E-2,-3.409442E-2,-9.624895E-3,2.8261676E-2,3.6608513E-2,5.9411388E-2],"split_indices":[1123,1123,437,855,122,808,1126,178,141,207,265,287,1123,1123,15,601,0,0,0,216,0,1126,1126,481,1126,1126,99,15,0,0,0,544,0,360,0,0,0,1127,0,38,1123,1123,0,99,0,0,0,0,0,1117,0,287,1126,0,0,765,1018,1127,1126,0,0,0,0,0,0,0,0,0,0,0,0,0,0,0,0,0,0],"split_type":[0,0,0,0,0,0,0,0,0,0,0,0,0,0,0,0,0,0,0,0,0,0,0,0,0,0,0,0,0,0,0,0,0,0,0,0,0,0,0,0,0,0,0,0,0,0,0,0,0,0,0,0,0,0,0,0,0,0,0,0,0,0,0,0,0,0,0,0,0,0,0,0,0,0,0,0,0],"sum_hessian":[2.1020256E4,8.468484E3,1.2551772E4,1.9699109E3,6.4985737E3,1.1557523E4,9.9424835E2,1.8935374E3,7.637354E1,5.247235E3,1.2513387E3,1.1025451E4,5.3207245E2,6.709786E2,3.2326978E2,1.7883387E3,1.0519862E2,1.6478859E1,5.9894688E1,4.672336E3,5.7489886E2,4.2954626E2,8.217924E2,9.171443E3,1.8540083E3,5.0601236E2,2.6060076E1,6.528003E2,1.8178337E1,5.4699807E0,3.1779977E2,1.7687246E3,1.9614183E1,4.5862085E3,8.6127365E1,3.345699E2,9.497638E1,6.440681E2,1.777243E2,8.388548E3,7.8289545E2,1.5155518E3,3.3845663E2,3.9536603E2,1.1064632E2,1.4833237E1,1.122684E1,2.857493E1,6.2422534E2,1.7635719E3,5.152693E0,4.3624336E3,2.2377478E2,6.203811E2,2.368702E1,4.657369E3,3.7311782E3,6.7302075E2,1.09874756E2,1.493694E3,2.1857735E1,5.0275913E1,3.4509012E2,1.753505E3,1.0066883E1,3.63408E3,7.283537E2,1.9636282E2,2.7411955E1,4.5953584E3,6.2010956E1,3.6070266E3,1.24151764E2,6.51921E2,2.10997E1,9.062556E1,1.9249193E1],"tree_param":{"num_deleted":"0","num_feature":"1130","num_nodes":"77","size_leaf_vector":"1"}},{"base_weights":[-4.8781093E-3,-4.6641216E-1,3.060399E-1,-1.0488589E0,-2.919772E-1,3.8466677E-1,-6.137583E-1,-1.1075497E0,1.105483E-1,-1.7205441E-1,-7.9853606E-1,4.305539E-1,-5.700851E-1,-6.722354E-1,-4.8936287E-1,-1.1715643E0,-6.8011385E-1,2.5865036E-1,-6.2875114E-2,-8.142315E-2,-9.16002E-1,-1.1991507E0,-5.896804E-1,3.541453E-1,8.0738634E-1,-6.228488E-1,3.7731734E-1,-6.3588715E-1,-3.547023E-2,-7.665096E-1,-4.025374E-1,-1.1790994E0,9.207445E-3,-8.6782277E-1,-4.681103E-1,3.6608323E-1,-2.1016784E-2,-1.09770544E-1,7.0605904E-2,-5.0410032E-2,-4.1861754E-2,-8.343651E-1,-6.0454197E-2,-6.361154E-2,-5.7330996E-1,3.1167263E-1,7.1517986E-1,8.019623E-1,5.629289E-2,-6.529658E-1,-4.462454E-1,-1.0012671E-1,3.7429333E-2,-3.761077E-2,-5.955572E-1,-5.6114074E-2,-3.280629E-2,-1.1653497E-2,-2.6267443E-2,-1.1849811E0,-7.5267996E-3,-6.2997006E-2,-8.0055875E-1,-5.222443E-1,-1.2594764E-3,5.173992E-3,3.8680908E-1,-1.5475959E-1,6.563823E-1,-1.19036725E-2,-7.0667244E-2,-2.7131021E-2,-6.8665975E-1,2.778506E-1,8.4681815E-1,7.871105E-1,-2.6317656E-1,4.2048633E-2,7.6912254E-1,-6.227811E-1,-3.8705233E-2,-3.6660254E-1,-5.789129E-1,-7.422185E-3,-1.8662373E-3,-5.8047086E-1,-4.9604084E-2,-5.9784062E-2,-3.9411254E-2,-3.7723817E-2,-5.591864E-2,-2.4926994E-2,-3.851908E-2,2.2531372E-2,1.2545647E-2,-1.2015168E-2,1.32930605E-2,3.757928E-2,2.8114824E-3,-4.1134477E-2,-2.5335336E-2,1.5960727E-2,-8.552006E-3,3.873586E-2,6.9037475E-2,4.1993286E-2,-1.0478716E-2,-1.43648675E-2,-2.197363E-3,3.768248E-2,4.142261E-2,-3.4666833E-2,-2.980645E-2,-3.3595093E-2,-1.5666334E-2,-2.2397246E-2,-4.026047E-2,-1.1266949E-2,-2.9670564E-2],"categories":[],"categories_nodes":[],"categories_segments":[],"categories_sizes":[],"default_left":[0,0,0,0,0,0,0,0,0,0,0,0,0,0,0,0,0,0,0,0,0,0,0,0,0,0,0,0,0,0,0,0,0,0,0,0,0,0,0,0,0,0,0,0,0,0,0,0,0,0,0,0,0,0,0,0,0,0,0,0,0,0,0,0,0,0,0,0,0,0,0,0,0,0,0,0,0,0,0,0,0,0,0,0,0,0,0,0,0,0,0,0,0,0,0,0,0,0,0,0,0,0,0,0,0,0,0,0,0,0,0,0,0,0,0,0,0,0,0],"id":7,"left_children":[1,3,5,7,9,11,13,15,17,19,21,23,25,27,29,31,33,35,-1,37,39,41,43,45,47,49,51,53,-1,55,57,59,-1,61,63,65,-1,67,-1,-1,-1,69,-1,-1,71,73,75,77,-1,79,81,83,-1,-1,85,-1,-1,-1,-1,87,-1,-1,89,91,-1,-1,93,95,97,-1,-1,-1,99,101,103,105,107,-1,109,111,-1,113,115,-1,-1,117,-1,-1,-1,-1,-1,-1,-1,-1,-1,-1,-1,-1,-1,-1,-1,-1,-1,-1,-1,-1,-1,-1,-1,-1,-1,-1,-1,-1,-1,-1,-1,-1,-1],"loss_changes":[3.0116082E3,8.5781604E2,9.070687E2,1.3266333E2,3.9475775E2,5.0635925E2,6.7401733E0,4.9712646E1,1.939358E1,3.544082E2,1.03219055E2,3.1699902E2,2.6758774E1,3.1777954E-1,7.2767944E0,1.6761475E1,9.166855E0,6.4407167E0,0E0,1.9854973E2,3.117157E0,3.2769775E-1,8.24823E0,1.4024341E2,2.112915E0,2.2720032E0,5.189677E0,1.0549774E0,0E0,2.0301628E0,4.9238243E0,9.374512E0,0E0,2.1600266E0,2.7366352E0,3.198948E-1,0E0,1.5869955E2,0E0,0E0,0E0,4.5962667E0,0E0,0E0,2.296936E0,1.48146E2,6.809271E1,1.536499E0,0E0,9.386444E-1,5.054102E-1,1.6016975E-2,0E0,0E0,8.5007477E-1,0E0,0E0,0E0,0E0,5.6169434E0,0E0,0E0,6.118164E-1,1.0062599E-1,0E0,0E0,4.1452312E-1,1.5652145E2,1.44668045E1,0E0,0E0,0E0,3.5277176E0,1.4337958E2,1.746399E1,4.746808E1,3.067913E-1,0E0,1.4160156E-1,1.1100769E-1,0E0,5.242276E-1,3.0346775E-1,0E0,0E0,9.682846E-1,0E0,0E0,0E0,0E0,0E0,0E0,0E0,0E0,0E0,0E0,0E0,0E0,0E0,0E0,0E0,0E0,0E0,0E0,0E0,0E0,0E0,0E0,0E0,0E0,0E0,0E0,0E0,0E0,0E0,0E0,0E0,0E0,0E0],"parents":[2147483647,0,0,1,1,2,2,3,3,4,4,5,5,6,6,7,7,8,8,9,9,10,10,11,11,12,12,13,13,14,14,15,15,16,16,17,17,19,19,20,20,21,21,22,22,23,23,24,24,25,25,26,26,27,27,29,29,30,30,31,31,33,33,34,34,35,35,37,37,41,41,44,44,45,45,46,46,47,47,49,49,50,50,51,51,54,54,59,59,62,62,63,63,66,66,67,67,68,68,72,72,73,73,74,74,75,75,76,76,78,78,79,79,81,81,82,82,85,85],"right_children":[2,4,6,8,10,12,14,16,18,20,22,24,26,28,30,32,34,36,-1,38,40,42,44,46,48,50,52,54,-1,56,58,60,-1,62,64,66,-1,68,-1,-1,-1,70,-1,-1,72,74,76,78,-1,80,82,84,-1,-1,86,-1,-1,-1,-1,88,-1,-1,90,92,-1,-1,94,96,98,-1,-1,-1,100,102,104,106,108,-1,110,112,-1,114,116,-1,-1,118,-1,-1,-1,-1,-1,-1,-1,-1,-1,-1,-1,-1,-1,-1,-1,-1,-1,-1,-1,-1,-1,-1,-1,-1,-1,-1,-1,-1,-1,-1,-1,-1,-1],"split_conditions":[2E0,1E0,1E0,1E0,1E0,1E0,5E1,1E0,1E0,1E0,1E0,1E0,3E0,2.025E3,2.024E3,1E0,1E0,5E1,-6.2875114E-2,1E0,2.025E3,2.023E3,2.023E3,1E0,3E0,1E0,1E0,2.024E3,-3.547023E-2,2.023E3,2.025E3,1E0,9.207445E-3,2.024E3,1E0,2.024E3,-2.1016784E-2,1E0,7.0605904E-2,-5.0410032E-2,-4.1861754E-2,5E1,-6.0454197E-2,-6.361154E-2,5E1,3E0,1E0,2.025E3,5.629289E-2,5E1,5E1,2.025E3,3.7429333E-2,-3.761077E-2,3E0,-5.6114074E-2,-3.280629E-2,-1.1653497E-2,-2.6267443E-2,1E0,-7.5267996E-3,-6.2997006E-2,5E1,5E1,-1.2594764E-3,5.173992E-3,2.025E3,1E0,5E1,-1.19036725E-2,-7.0667244E-2,-2.7131021E-2,2.025E3,1E0,1E0,1E0,5E1,4.2048633E-2,5E1,2.025E3,-3.8705233E-2,2.024E3,2.025E3,-7.422185E-3,-1.8662373E-3,1E0,-4.9604084E-2,-5.9784062E-2,-3.9411254E-2,-3.7723817E-2,-5.591864E-2,-2.4926994E-2,-3.851908E-2,2.2531372E-2,1.2545647E-2,-1.2015168E-2,1.32930605E-2,3.757928E-2,2.8114824E-3,-4.1134477E-2,-2.5335336E-2,1.5960727E-2,-8.552006E-3,3.873586E-2,6.9037475E-2,4.1993286E-2,-1.0478716E-2,-1.43648675E-2,-2.197363E-3,3.768248E-2,4.142261E-2,-3.4666833E-2,-2.980645E-2,-3.3595093E-2,-1.5666334E-2,-2.2397246E-2,-4.026047E-2,-1.1266949E-2,-2.9670564E-2],"split_indices":[1123,1123,437,486,122,439,1126,142,73,89,267,287,1123,1129,1129,531,524,1126,0,125,1129,1129,1129,486,1123,36,36,1129,0,1129,1129,595,0,1129,29,1129,0,1013,0,0,0,1126,0,0,1126,1123,73,1129,0,1126,1126,1129,0,0,1123,0,0,0,0,413,0,0,1126,1126,0,0,1129,287,1126,0,0,0,1129,89,308,59,1126,0,1126,1129,0,1129,1129,0,0,15,0,0,0,0,0,0,0,0,0,0,0,0,0,0,0,0,0,0,0,0,0,0,0,0,0,0,0,0,0,0,0,0,0],"split_type":[0,0,0,0,0,0,0,0,0,0,0,0,0,0,0,0,0,0,0,0,0,0,0,0,0,0,0,0,0,0,0,0,0,0,0,0,0,0,0,0,0,0,0,0,0,0,0,0,0,0,0,0,0,0,0,0,0,0,0,0,0,0,0,0,0,0,0,0,0,0,0,0,0,0,0,0,0,0,0,0,0,0,0,0,0,0,0,0,0,0,0,0,0,0,0,0,0,0,0,0,0,0,0,0,0,0,0,0,0,0,0,0,0,0,0,0,0,0,0],"sum_hessian":[2.0984818E4,8.446482E3,1.2538337E4,1.9453335E3,6.501149E3,1.1551567E4,9.86769E2,1.8517275E3,9.360591E1,5.257925E3,1.2432245E3,1.1022461E4,5.2910626E2,6.676875E2,3.1908145E2,1.6088102E3,2.4291739E2,8.5259895E1,8.346011E0,4.688048E3,5.698766E2,4.2424414E2,8.189803E2,9.166098E3,1.8563633E3,5.0161774E2,2.748849E1,3.4808646E2,3.1960104E2,7.3974625E1,2.4510683E2,1.6001207E3,8.689502E0,1.26950066E2,1.1596733E2,7.4137566E1,1.1122334E1,4.601701E3,8.634678E1,2.5653116E2,3.1334543E2,1.3766177E1,4.1047797E2,1.7242565E1,8.0173773E2,8.203201E3,9.628973E2,1.829044E3,2.7319239E1,4.2574924E2,7.58685E1,1.2226477E1,1.5262012E1,8.442844E1,2.6365802E2,1.5131659E1,5.8842968E1,1.0455012E2,1.405567E2,1.5907748E3,9.345858E0,1.5774472E1,1.1117559E2,1.02976616E2,1.2990711E1,6.214569E0,6.7923E1,4.34735E3,2.5435098E2,7.5619893E0,6.2041874E0,6.361649E2,1.655728E2,7.7171694E3,4.8603107E2,8.9722894E2,6.566835E1,8.233424E2,1.0057016E3,3.4640143E2,7.934782E1,5.0230965E1,2.563754E1,5.2394757E0,6.9870014E0,2.5661096E2,7.0470824E0,1.5467937E3,4.3981056E1,1.00318245E2,1.08573475E1,9.711173E1,5.864883E0,4.4141727E1,2.378127E1,3.613185E3,7.341652E2,2.1916545E2,3.518552E1,9.1943596E1,7.362921E1,7.0665225E3,6.5064734E2,4.3053125E2,5.5499825E1,8.523701E2,4.485882E1,5.8468678E1,7.1996717E0,8.0987695E2,1.9582463E2,8.708826E1,2.5931317E2,5.4590263E0,4.477194E1,1.8406326E1,7.2312145E0,9.940811E0,2.4667014E2],"tree_param":{"num_deleted":"0","num_feature":"1130","num_nodes":"119","size_leaf_vector":"1"}},{"base_weights":[-2.964471E-3,1.02329336E-1,-9.068637E-1,1.5309621E-1,-7.7914417E-1,-9.006559E-1,-6.488655E-2,2.1163248E-1,-4.9315953E-1,-8.2421345E-1,-5.5530703E-1,-8.6247545E-1,-4.7149062E-2,3.4527758E-1,-2.7237473E-2,-5.877543E-1,-4.216872E-1,-4.4211775E-2,-4.0111646E-2,-4.541081E-2,-2.5763258E-2,-9.543294E-1,-4.1852992E-2,3.7466717E-1,-4.2600554E-1,6.8585076E-3,-8.2231086E-1,-5.7975185E-1,-6.2710166E-2,-4.328813E-1,1.7748943E-2,-4.6901394E-2,-6.8509184E-2,3.9457226E-1,-8.412468E-1,-2.3672165E-2,-1.97347E-2,-1.1317156E-1,1.1056616E-1,-5.775972E-1,-9.466647E-1,-5.9180534E-1,-2.2717959E-1,-2.12709E-2,-5.5122085E-2,1.900529E-2,7.2890155E-2,-5.2191745E-2,-3.9586283E-2,-5.372969E-3,-5.2961588E-2,5.798261E-3,-5.9812445E-2,-2.3814442E-2,-5.6224264E-2,-4.4414233E-2,-5.9554216E-2,-3.5387892E-2,-2.8674131E-2,3.4225546E-3,-2.0496732E-2],"categories":[],"categories_nodes":[],"categories_segments":[],"categories_sizes":[],"default_left":[0,0,0,0,0,0,0,0,0,0,0,0,0,0,0,0,0,0,0,0,0,0,0,0,0,0,0,0,0,0,0,0,0,0,0,0,0,0,0,0,0,0,0,0,0,0,0,0,0,0,0,0,0,0,0,0,0,0,0,0,0],"id":8,"left_children":[1,3,5,7,9,11,-1,13,15,17,19,21,-1,23,25,27,29,-1,-1,-1,-1,31,-1,33,35,37,39,41,-1,43,-1,-1,-1,45,47,-1,-1,49,51,53,55,57,59,-1,-1,-1,-1,-1,-1,-1,-1,-1,-1,-1,-1,-1,-1,-1,-1,-1,-1],"loss_changes":[1.993977E3,8.3973615E2,3.9151611E0,6.712852E2,9.713257E0,2.4888916E0,0E0,5.1944916E2,9.6154175E0,2.409668E-1,1.8584785E0,1.6975708E0,0E0,2.3665576E2,1.5834412E2,2.4555817E0,7.49617E0,0E0,0E0,0E0,0E0,1.1354065E-1,0E0,2.4355249E2,2.9567719E-1,6.970455E1,6.6098633E0,2.4425964E0,0E0,3.5370178E0,0E0,0E0,0E0,1.5138184E2,6.1655426E-1,0E0,0E0,1.3793896E1,2.1229141E1,3.9452324E0,9.803009E-1,7.494354E-1,1.2821783E0,0E0,0E0,0E0,0E0,0E0,0E0,0E0,0E0,0E0,0E0,0E0,0E0,0E0,0E0,0E0,0E0,0E0,0E0],"parents":[2147483647,0,0,1,1,2,2,3,3,4,4,5,5,7,7,8,8,9,9,10,10,11,11,13,13,14,14,15,15,16,16,21,21,23,23,24,24,25,25,26,26,27,27,29,29,33,33,34,34,37,37,38,38,39,39,40,40,41,41,42,42],"right_children":[2,4,6,8,10,12,-1,14,16,18,20,22,-1,24,26,28,30,-1,-1,-1,-1,32,-1,34,36,38,40,42,-1,44,-1,-1,-1,46,48,-1,-1,50,52,54,56,58,60,-1,-1,-1,-1,-1,-1,-1,-1,-1,-1,-1,-1,-1,-1,-1,-1,-1,-1],"split_conditions":[1E0,1E0,1E0,1E0,1E0,2.025E3,-6.488655E-2,1E0,2.025E3,2.025E3,2.024E3,2.024E3,-4.7149062E-2,1E0,1E0,1E0,2E0,-4.4211775E-2,-4.0111646E-2,-4.541081E-2,-2.5763258E-2,2E0,-4.1852992E-2,1E0,2.025E3,1E0,2.025E3,2E0,-6.2710166E-2,1E0,1.7748943E-2,-4.6901394E-2,-6.8509184E-2,1E0,2.025E3,-2.3672165E-2,-1.97347E-2,1E0,1E0,1E0,1E0,2.024E3,2.023E3,-2.12709E-2,-5.5122085E-2,1.900529E-2,7.2890155E-2,-5.2191745E-2,-3.9586283E-2,-5.372969E-3,-5.2961588E-2,5.798261E-3,-5.9812445E-2,-2.3814442E-2,-5.6224264E-2,-4.4414233E-2,-5.9554216E-2,-3.5387892E-2,-2.8674131E-2,3.4225546E-3,-2.0496732E-2],"split_indices":[437,916,1128,89,54,1129,0,38,1129,1129,1129,1129,0,765,1018,1128,1127,0,0,0,0,1127,0,23,1129,20,1129,1127,0,1128,0,0,0,125,1129,0,0,1128,1128,122,122,1129,1129,0,0,0,0,0,0,0,0,0,0,0,0,0,0,0,0,0,0],"split_type":[0,0,0,0,0,0,0,0,0,0,0,0,0,0,0,0,0,0,0,0,0,0,0,0,0,0,0,0,0,0,0,0,0,0,0,0,0,0,0,0,0,0,0,0,0,0,0,0,0,0,0,0,0,0,0,0,0,0,0,0,0],"sum_hessian":[2.0947818E4,1.876293E4,2.1848882E3,1.7742049E4,1.0208815E3,2.1542346E3,3.0653582E1,1.6269247E4,1.4728015E3,8.471752E2,1.7370631E2,1.1450549E3,1.00917975E3,1.0432405E4,5.8368423E3,6.301567E2,8.426449E2,2.1534782E2,6.318274E2,1.5236893E1,1.5846942E2,2.3939217E2,9.056628E2,1.0050092E4,3.8231287E2,5.597657E3,2.3918472E2,6.246758E2,5.480895E0,8.3123566E2,1.1409237E1,2.3372621E2,5.6659575E0,9.888963E3,1.6112926E2,1.4512749E2,2.3718536E2,2.5941555E3,3.0035017E3,8.276398E1,1.5642075E2,6.0309546E2,2.1580318E1,8.238374E2,7.3982406E0,9.75765E3,1.313127E2,2.7309555E1,1.338197E2,2.5797983E3,1.4357171E1,2.9921277E3,1.1374065E1,7.156134E1,1.1202633E1,1.3033372E2,2.608703E1,7.641683E1,5.266786E2,8.27411E0,1.3306209E1],"tree_param":{"num_deleted":"0","num_feature":"1130","num_nodes":"61","size_leaf_vector":"1"}},{"base_weights":[2.210706E-3,-4.4227928E-1,3.0169666E-1,-1.2380142E0,-3.2455233E-1,-6.966022E-1,3.8827217E-1,-1.2491055E0,4.3387204E-2,-2.0454939E-1,-1.088385E0,-3.3238602E-1,-1.0912055E0,4.5605323E-1,-4.4393462E-1,-1.0791867E0,-1.3907651E0,-7.466015E-1,-1.1323424E-1,-3.0816365E-2,-5.469904E-2,-7.802323E-2,-2.6897022E-1,-1.1616675E0,-1.6116959E-1,4.9685705E-1,-4.263149E-1,-6.673201E-1,-3.9753217E-1,-1.1360099E0,-4.1585457E-1,-1.2669647E0,-7.511831E-2,-8.2533467E-1,2.3072738E-2,-4.760397E-2,-7.938931E-1,-4.5720777E-1,1.3491483E-1,-1.2046058E0,1.1229293E-1,-3.4727627E-1,3.28568E-2,4.3159387E-1,8.168324E-1,-4.7209194E-1,3.6223173E-1,-4.379986E-2,-3.0801142E-2,-3.8381132E-1,-4.7795814E-2,-1.1580068E0,5.6931516E-4,-6.260449E-2,-2.3963143E-1,-7.427924E-2,-1.174932E0,-8.4086984E-1,3.6756154E-2,-7.085638E-2,6.9242075E-2,-5.2990664E-2,-7.771464E-1,-5.226138E-1,3.7598696E-2,3.9271727E-1,-8.855254E-2,-1.2442076E0,-7.5092465E-1,-6.437273E-3,2.527816E-2,-6.1260754E-1,-6.478143E-3,4.1207078E-1,1.0314213E0,4.0511914E-2,6.280311E-2,-5.0453466E-1,-1.4684941E-2,-8.114557E-2,6.8011427E-1,-1.4946766E-2,-2.2770608E-2,-6.0646243E-2,-3.1309795E-2,2.1171928E-3,-2.3234326E-2,-5.968699E-2,-1.9596634E-2,-4.6228018E-2,-2.8478598E-2,-6.813813E-3,1.6651286E-2,-3.8389068E-2,-6.1939087E-2,-2.1461355E-2,-6.640365E-2,2.4001947E-2,-1.4961992E-2,-6.8148845E-3,5.624741E-3,-6.309735E-2,-2.9986328E-2,-2.402892E-2,-6.36703E-2,-1.4266807E-2,-4.4620033E-2,1.9337079E-2,4.616661E-2,5.5257756E-2,4.3451574E-2,-2.8579984E-2,-2.3912873E-2,5.2480944E-3,-1.3877076E-2,4.3397453E-2,1.4241596E-2],"categories":[],"categories_nodes":[],"categories_segments":[],"categories_sizes":[],"default_left":[0,0,0,0,0,0,0,0,0,0,0,0,0,0,0,0,0,0,0,0,0,0,0,0,0,0,0,0,0,0,0,0,0,0,0,0,0,0,0,0,0,0,0,0,0,0,0,0,0,0,0,0,0,0,0,0,0,0,0,0,0,0,0,0,0,0,0,0,0,0,0,0,0,0,0,0,0,0,0,0,0,0,0,0,0,0,0,0,0,0,0,0,0,0,0,0,0,0,0,0,0,0,0,0,0,0,0,0,0,0,0,0,0,0,0,0,0],"id":9,"left_children":[1,3,5,7,9,11,13,15,-1,17,19,21,23,25,27,29,31,33,35,-1,-1,-1,37,39,41,43,45,47,49,51,53,55,-1,57,-1,59,61,63,65,67,69,71,-1,73,75,77,79,-1,-1,81,-1,83,-1,-1,85,-1,87,89,-1,91,-1,-1,93,95,-1,97,99,101,103,-1,-1,105,-1,107,109,-1,-1,111,-1,113,115,-1,-1,-1,-1,-1,-1,-1,-1,-1,-1,-1,-1,-1,-1,-1,-1,-1,-1,-1,-1,-1,-1,-1,-1,-1,-1,-1,-1,-1,-1,-1,-1,-1,-1,-1,-1],"loss_changes":[2.7774644E3,7.862473E2,1.0776365E3,2.6392334E1,6.7042505E2,1.4250662E2,6.472993E2,2.4170776E1,0E0,3.1293512E2,1.7783203E0,3.9818882E1,3.0941956E1,3.821621E2,8.587997E0,1.8005432E1,5.880493E0,8.712906E1,2.4177661E2,0E0,0E0,0E0,3.7713753E1,2.4487305E1,5.5057383E0,2.112732E2,1.7123016E1,8.8285065E-1,5.004257E0,1.1602112E1,5.5517406E0,3.6906738E0,0E0,2.1387512E1,0E0,1.6450745E2,1.1124878E0,2.7095108E1,9.162458E0,6.5718994E0,1.5520676E0,1.5304439E0,0E0,9.808679E1,3.7470703E0,2.342369E0,3.8072007E0,0E0,0E0,4.061653E0,0E0,1.2087158E1,0E0,0E0,2.281079E0,0E0,2.3858643E0,1.8587097E1,0E0,1.2849214E2,0E0,0E0,8.019409E-1,2.3417961E1,0E0,4.615732E0,8.3551335E-1,3.547058E0,4.4611454E0,0E0,0E0,7.872243E-1,0E0,1.05193726E2,2.0119934E0,0E0,0E0,2.8057098E-1,0E0,4.7406313E-1,7.8798485E-1,0E0,0E0,0E0,0E0,0E0,0E0,0E0,0E0,0E0,0E0,0E0,0E0,0E0,0E0,0E0,0E0,0E0,0E0,0E0,0E0,0E0,0E0,0E0,0E0,0E0,0E0,0E0,0E0,0E0,0E0,0E0,0E0,0E0,0E0,0E0,0E0],"parents":[2147483647,0,0,1,1,2,2,3,3,4,4,5,5,6,6,7,7,9,9,10,10,11,11,12,12,13,13,14,14,15,15,16,16,17,17,18,18,22,22,23,23,24,24,25,25,26,26,27,27,28,28,29,29,30,30,31,31,33,33,35,35,36,36,37,37,38,38,39,39,40,40,41,41,43,43,44,44,45,45,46,46,49,49,51,51,54,54,56,56,57,57,59,59,62,62,63,63,65,65,66,66,67,67,68,68,71,71,73,73,74,74,77,77,79,79,80,80],"right_children":[2,4,6,8,10,12,14,16,-1,18,20,22,24,26,28,30,32,34,36,-1,-1,-1,38,40,42,44,46,48,50,52,54,56,-1,58,-1,60,62,64,66,68,70,72,-1,74,76,78,80,-1,-1,82,-1,84,-1,-1,86,-1,88,90,-1,92,-1,-1,94,96,-1,98,100,102,104,-1,-1,106,-1,108,110,-1,-1,112,-1,114,116,-1,-1,-1,-1,-1,-1,-1,-1,-1,-1,-1,-1,-1,-1,-1,-1,-1,-1,-1,-1,-1,-1,-1,-1,-1,-1,-1,-1,-1,-1,-1,-1,-1,-1,-1,-1],"split_conditions":[2E0,9.5E1,9.7E1,1E0,1E0,1.7E1,1E0,2.4E1,4.3387204E-2,1E0,2.023E3,6E0,3E0,1E0,2.024E3,1E0,1E0,1E0,1E0,-3.0816365E-2,-5.469904E-2,-7.802323E-2,1E0,1E0,1E0,1E0,3E0,2.023E3,3E0,1E0,1E0,1E0,-7.511831E-2,1E0,2.3072738E-2,1E0,2.024E3,3E0,2.025E3,1E0,1E0,2.025E3,3.28568E-2,1E0,3E0,1E0,1E0,-4.379986E-2,-3.0801142E-2,2.025E3,-4.7795814E-2,1E0,5.6931516E-4,-6.260449E-2,2.025E3,-7.427924E-2,1E0,1E0,3.6756154E-2,1E0,6.9242075E-2,-5.2990664E-2,1E0,1E0,3.7598696E-2,1E0,1E0,1E0,3.4E1,-6.437273E-3,2.527816E-2,2.024E3,-6.478143E-3,1E0,2.025E3,4.0511914E-2,6.280311E-2,2.025E3,-1.4684941E-2,2.025E3,2.025E3,-1.4946766E-2,-2.2770608E-2,-6.0646243E-2,-3.1309795E-2,2.1171928E-3,-2.3234326E-2,-5.968699E-2,-1.9596634E-2,-4.6228018E-2,-2.8478598E-2,-6.813813E-3,1.6651286E-2,-3.8389068E-2,-6.1939087E-2,-2.1461355E-2,-6.640365E-2,2.4001947E-2,-1.4961992E-2,-6.8148845E-3,5.624741E-3,-6.309735E-2,-2.9986328E-2,-2.402892E-2,-6.36703E-2,-1.4266807E-2,-4.4620033E-2,1.9337079E-2,4.616661E-2,5.5257756E-2,4.3451574E-2,-2.8579984E-2,-2.3912873E-2,5.2480944E-3,-1.3877076E-2,4.3397453E-2,1.4241596E-2],"split_indices":[1123,1125,1125,125,437,1125,437,1125,0,1123,1129,1125,1123,439,1129,554,289,360,138,0,0,0,142,1018,59,554,1123,1129,1123,143,1123,1123,0,595,0,125,1129,1123,1129,554,141,1129,0,360,1123,54,54,0,0,1129,0,309,0,0,1129,0,1013,142,0,554,0,0,1128,439,0,609,609,309,1125,0,0,1129,0,1013,1129,0,0,1129,0,1129,1129,0,0,0,0,0,0,0,0,0,0,0,0,0,0,0,0,0,0,0,0,0,0,0,0,0,0,0,0,0,0,0,0,0,0,0,0],"split_type":[0,0,0,0,0,0,0,0,0,0,0,0,0,0,0,0,0,0,0,0,0,0,0,0,0,0,0,0,0,0,0,0,0,0,0,0,0,0,0,0,0,0,0,0,0,0,0,0,0,0,0,0,0,0,0,0,0,0,0,0,0,0,0,0,0,0,0,0,0,0,0,0,0,0,0,0,0,0,0,0,0,0,0,0,0,0,0,0,0,0,0,0,0,0,0,0,0,0,0,0,0,0,0,0,0,0,0,0,0,0,0,0,0,0,0,0,0],"sum_hessian":[2.0862705E4,8.397911E3,1.2464793E4,1.0809867E3,7.316925E3,9.9406537E2,1.1470728E4,1.0757748E3,5.21192E0,6.324677E3,9.9224805E2,5.1802625E2,4.7603915E2,1.0607358E4,8.633693E2,4.933419E2,5.824329E2,9.1066187E2,5.4140146E3,1.313561E1,9.791125E2,2.419987E1,4.9382635E2,4.4218167E2,3.385746E1,1.0139044E4,4.68315E2,1.45824E2,7.175453E2,4.5361993E2,3.9721973E1,2.8240582E2,3.000271E2,8.553175E2,5.5344364E1,4.9390044E3,4.7501022E2,3.3691632E2,1.5691005E2,4.2789264E2,1.4289033E1,2.8152561E1,5.704899E0,8.423601E3,1.7154431E3,4.43119E2,2.5196009E1,2.5216612E1,1.206074E2,7.021581E2,1.5387252E1,4.4516354E2,8.4563675E0,5.752399E0,3.3969574E1,7.8856544E1,2.0354927E2,8.474064E2,7.9111557E0,4.8611157E3,7.788852E1,2.4098309E1,4.509119E2,3.2024442E2,1.6671898E1,7.271394E1,8.41961E1,3.9173526E2,3.61574E1,9.118552E0,5.1704807E0,1.1664129E1,1.648843E1,8.159868E3,2.637324E2,1.6930969E3,2.234622E1,3.7291214E2,7.020686E1,1.0700825E1,1.4495183E1,3.243013E2,3.7785675E2,4.0216483E2,4.299873E1,1.5241172E1,1.8728403E1,1.9813768E2,5.411588E0,6.455037E2,2.0190263E2,4.184268E3,6.768479E2,4.447689E2,6.143031E0,2.8845712E2,3.1787306E1,6.4966286E1,7.747653E0,6.870044E1,1.5495665E1,3.8015808E2,1.1577158E1,2.521939E1,1.0938009E1,6.4715886E0,5.192541E0,7.7765503E3,3.8331784E2,1.7696115E2,8.6771225E1,9.806683E1,2.748453E2,5.4719324E0,5.228893E0,8.84389E0,5.651293E0],"tree_param":{"num_deleted":"0","num_feature":"1130","num_nodes":"117","size_leaf_vector":"1"}},{"base_weights":[-1.8675637E-4,-4.1799566E-1,2.7990282E-1,-1.1998296E0,-3.032111E-1,-6.865376E-1,3.634913E-1,-1.0128448E0,-1.3378489E0,-1.8758716E-1,-1.0574449E0,-3.2296988E-1,-1.0892056E0,4.3015048E-1,-4.4621092E-1,-1.0806118E0,-2.707507E-1,-1.2225393E0,-1.4419526E0,-7.111595E-1,-1.0041337E-1,-5.4447353E-2,-4.979865E-2,-1.4129225E0,-2.6543084E-1,-1.1534898E0,-2.6677145E-2,4.6738657E-1,-4.4316635E-1,-4.4088462E-1,-3.3312496E-2,-1.1018169E0,8.84078E-3,-3.4983173E-2,-9.13979E-3,-1.243102E0,-2.353203E-2,-1.1055317E0,-7.343373E-2,-8.0133176E-1,1.8350963E-1,-3.6282558E-2,-7.737731E-1,-7.813725E-2,-3.8630668E-2,-4.2443714E-1,7.904829E-2,-1.1986216E0,-3.8711315E-1,-5.9977174E-1,7.183444E-1,4.0329E-1,7.8574955E-1,-2.3035675E-2,-2.6601034E-1,-1.4431228E-2,-2.2310039E-2,-1.1233838E0,-4.1735405E-3,-7.0928864E-2,-1.1668199E0,-6.775133E-2,-3.7342932E-2,-8.1640136E-1,2.8119508E-2,2.8041074E-1,-4.4172E-2,8.8273615E-2,-2.9872057E-1,-3.8277872E-2,-5.6502666E-2,-4.7595447E-1,2.8388694E-2,1.4137122E-1,-1.9905759E-2,-1.2381005E0,-7.963591E-1,-2.4410712E-2,-1.26351705E-2,-5.7450044E-3,-4.5647975E-2,5.5201966E-2,1.3126718E-2,3.7378177E-1,9.0453964E-1,3.892736E-2,6.0780305E-2,-2.0345367E-2,4.0757083E-3,-5.8471512E-2,-3.5236146E-2,-6.0682923E-2,-4.2554434E-2,-4.3587673E-2,-2.069679E-2,1.7282551E-2,3.0730085E-3,6.7518386E-3,-4.0380765E-2,-1.31403E-2,-5.166955E-2,-1.9829871E-2,-5.8375414E-2,-1.1904301E-2,8.331606E-3,-6.3503236E-2,-4.1233193E-2,-3.0827958E-2,-5.5729132E-2,1.6543718E-2,3.6953006E-2,4.641972E-2,4.7943653E-3],"categories":[],"categories_nodes":[],"categories_segments":[],"categories_sizes":[],"default_left":[0,0,0,0,0,0,0,0,0,0,0,0,0,0,0,0,0,0,0,0,0,0,0,0,0,0,0,0,0,0,0,0,0,0,0,0,0,0,0,0,0,0,0,0,0,0,0,0,0,0,0,0,0,0,0,0,0,0,0,0,0,0,0,0,0,0,0,0,0,0,0,0,0,0,0,0,0,0,0,0,0,0,0,0,0,0,0,0,0,0,0,0,0,0,0,0,0,0,0,0,0,0,0,0,0,0,0,0,0,0,0,0,0],"id":10,"left_children":[1,3,5,7,9,11,13,15,17,19,21,23,25,27,29,31,33,35,37,39,41,-1,-1,43,45,47,49,51,53,55,-1,57,-1,-1,-1,59,-1,61,-1,63,65,67,69,-1,-1,71,73,75,77,79,81,83,85,-1,87,-1,-1,89,-1,-1,91,-1,-1,93,-1,95,-1,97,99,-1,-1,101,-1,103,-1,105,107,-1,-1,-1,-1,-1,-1,109,111,-1,-1,-1,-1,-1,-1,-1,-1,-1,-1,-1,-1,-1,-1,-1,-1,-1,-1,-1,-1,-1,-1,-1,-1,-1,-1,-1,-1],"loss_changes":[2.4261853E3,7.4620483E2,1.0028661E3,2.5888672E1,6.3253534E2,1.4418924E2,6.168064E2,2.253418E1,5.283203E0,2.871006E2,5.7421875E-1,3.2125977E1,3.1843079E1,3.4347766E2,6.1442566E-1,1.1430969E1,1.2801971E0,3.8208923E0,9.42688E-1,7.265311E1,2.3293544E2,0E0,0E0,1.0343018E0,2.724215E1,1.4649536E1,1.2302808E1,2.061726E2,1.1479263E0,4.8753357E-1,0E0,8.816864E0,0E0,0E0,0E0,1.9336853E0,0E0,1.2327576E0,0E0,1.7255005E1,8.761613E0,1.6115358E2,3.184204E-1,0E0,0E0,1.762967E1,4.7090592E0,5.4231567E0,1.5797448E-1,2.2755475E0,1.767612E0,1.24227295E2,4.1033936E0,0E0,2.1134236E0,0E0,0E0,6.7480164E0,0E0,0E0,1.8125305E0,0E0,0E0,1.7502075E1,0E0,1.0361133E0,0E0,1.4008662E2,4.1466324E1,0E0,0E0,1.7142708E1,0E0,1.3751619E0,0E0,3.7271729E0,1.4421921E0,0E0,0E0,0E0,0E0,0E0,0E0,1.244624E2,8.832581E0,0E0,0E0,0E0,0E0,0E0,0E0,0E0,0E0,0E0,0E0,0E0,0E0,0E0,0E0,0E0,0E0,0E0,0E0,0E0,0E0,0E0,0E0,0E0,0E0,0E0,0E0,0E0,0E0],"parents":[2147483647,0,0,1,1,2,2,3,3,4,4,5,5,6,6,7,7,8,8,9,9,10,10,11,11,12,12,13,13,14,14,15,15,16,16,17,17,18,18,19,19,20,20,23,23,24,24,25,25,26,26,27,27,28,28,29,29,31,31,35,35,37,37,39,39,40,40,41,41,42,42,45,45,46,46,47,47,48,48,49,49,50,50,51,51,52,52,54,54,57,57,60,60,63,63,65,65,67,67,68,68,71,71,73,73,75,75,76,76,83,83,84,84],"right_children":[2,4,6,8,10,12,14,16,18,20,22,24,26,28,30,32,34,36,38,40,42,-1,-1,44,46,48,50,52,54,56,-1,58,-1,-1,-1,60,-1,62,-1,64,66,68,70,-1,-1,72,74,76,78,80,82,84,86,-1,88,-1,-1,90,-1,-1,92,-1,-1,94,-1,96,-1,98,100,-1,-1,102,-1,104,-1,106,108,-1,-1,-1,-1,-1,-1,110,112,-1,-1,-1,-1,-1,-1,-1,-1,-1,-1,-1,-1,-1,-1,-1,-1,-1,-1,-1,-1,-1,-1,-1,-1,-1,-1,-1,-1],"split_conditions":[2E0,9.1E1,9.1E1,1.3E1,1E0,1.6E1,1E0,1E0,1E0,1E0,1E0,6E0,1E0,1E0,3E0,1E0,1E0,1E0,2.9E1,1E0,1E0,-5.4447353E-2,-4.979865E-2,1E0,1E0,3E0,1E0,1E0,3E0,1E0,-3.3312496E-2,1E0,8.84078E-3,-3.4983173E-2,-9.13979E-3,1E0,-2.353203E-2,1E0,-7.343373E-2,1E0,1E0,1E0,1E0,-7.813725E-2,-3.8630668E-2,3E0,1E0,1E0,1E0,1E0,1E0,3E0,3E0,-2.3035675E-2,1E0,-1.4431228E-2,-2.2310039E-2,1E0,-4.1735405E-3,-7.0928864E-2,1E0,-6.775133E-2,-3.7342932E-2,1E0,2.8119508E-2,1E0,-4.4172E-2,1E0,1E0,-3.8277872E-2,-5.6502666E-2,1E0,2.8388694E-2,1.2E1,-1.9905759E-2,1E0,4.3E1,-2.4410712E-2,-1.26351705E-2,-5.7450044E-3,-4.5647975E-2,5.5201966E-2,1.3126718E-2,1E0,1E0,3.892736E-2,6.0780305E-2,-2.0345367E-2,4.0757083E-3,-5.8471512E-2,-3.5236146E-2,-6.0682923E-2,-4.2554434E-2,-4.3587673E-2,-2.069679E-2,1.7282551E-2,3.0730085E-3,6.7518386E-3,-4.0380765E-2,-1.31403E-2,-5.166955E-2,-1.9829871E-2,-5.8375414E-2,-1.1904301E-2,8.331606E-3,-6.3503236E-2,-4.1233193E-2,-3.0827958E-2,-5.5729132E-2,1.6543718E-2,3.6953006E-2,4.641972E-2,4.7943653E-3],"split_indices":[1123,1124,1124,1124,437,1124,437,178,289,1123,1123,1124,486,99,1123,40,1123,360,1124,486,89,0,0,546,142,1123,1018,554,1123,101,0,855,0,0,0,1123,0,20,0,595,524,38,1128,0,0,1123,188,524,89,393,217,1123,1123,0,46,0,0,168,0,0,393,0,0,524,0,393,0,46,1018,0,0,439,0,1124,0,354,1124,0,0,0,0,0,0,486,86,0,0,0,0,0,0,0,0,0,0,0,0,0,0,0,0,0,0,0,0,0,0,0,0,0,0,0,0],"split_type":[0,0,0,0,0,0,0,0,0,0,0,0,0,0,0,0,0,0,0,0,0,0,0,0,0,0,0,0,0,0,0,0,0,0,0,0,0,0,0,0,0,0,0,0,0,0,0,0,0,0,0,0,0,0,0,0,0,0,0,0,0,0,0,0,0,0,0,0,0,0,0,0,0,0,0,0,0,0,0,0,0,0,0,0,0,0,0,0,0,0,0,0,0,0,0,0,0,0,0,0,0,0,0,0,0,0,0,0,0,0,0,0,0],"sum_hessian":[2.0730271E4,8.319685E3,1.2410587E4,1.0637594E3,7.255925E3,9.872864E2,1.1423301E4,4.5559494E2,6.081644E2,6.2926445E3,9.6328015E2,5.199108E2,4.6737555E2,1.0554951E4,8.6834985E2,4.1693054E2,3.8664406E1,2.9505414E2,3.1311032E2,8.9698425E2,5.3956606E3,6.2476764E2,3.385125E2,2.4801748E1,4.9510907E2,4.4054248E2,2.6833063E1,1.0123873E4,4.3107782E2,8.512037E2,1.7146238E1,4.10216E2,6.714553E0,5.2025204E0,3.3461887E1,2.8643454E2,8.619586E0,2.6433643E1,2.866767E2,8.1505255E2,8.193169E1,4.9275615E3,4.680988E2,1.8804905E1,5.996843E0,3.387879E2,1.5632115E2,4.1538596E2,2.5156511E1,1.5352562E1,1.1480501E1,8.429356E3,1.694516E3,3.90258E2,4.0819843E1,3.1217146E1,8.199865E2,4.0151132E2,8.704685E0,8.106024E1,2.053743E2,1.3786786E1,1.2646857E1,8.0661383E2,8.438695E0,7.5871864E1,6.059825E0,3.3417908E3,1.5857709E3,4.6090012E2,7.1986694E0,3.2265613E2,1.613178E1,1.390703E2,1.725085E1,3.7614395E2,3.924201E1,1.2430326E1,1.2726186E1,6.686623E0,8.665939E0,5.329378E0,6.151123E0,7.962552E3,4.6680493E2,1.6695857E3,2.4930338E1,2.9127531E1,1.169231E1,3.59896E2,4.161531E1,1.7609067E2,2.9283638E1,7.0784735E2,9.876651E1,5.765663E1,1.8215229E1,3.1769243E3,1.6486658E2,1.5132872E3,7.2483604E1,2.9098334E2,3.1672789E1,7.907272E0,1.3116302E2,3.470022E2,2.9141748E1,2.7152355E1,1.2089651E1,7.1274995E3,8.350525E2,4.531651E2,1.3639842E1],"tree_param":{"num_deleted":"0","num_feature":"1130","num_nodes":"113","size_leaf_vector":"1"}},{"base_weights":[-4.9728914E-3,-9.245638E-1,9.476257E-2,-6.4206463E-1,-1.1784842E0,1.8539368E-1,-7.3909134E-1,-8.0838907E-1,-5.1654786E-2,-1.2177639E0,-3.5215965E-1,2.2854717E-1,-6.0957444E-1,-7.6766086E-1,-6.573513E-1,-8.743165E-1,-1.728835E-1,-1.2879353E0,1.5735331E-1,-1.1613708E0,-1.3922653E0,-9.712698E-2,-6.432177E-2,2.787952E-1,-3.514582E-1,-6.439989E-1,-4.493397E-1,-1.5679715E-2,-3.86974E-2,-5.177333E-2,-6.4028555E-1,-7.583883E-2,-8.2371795E-1,9.22307E-3,-2.4811491E-2,-7.0016846E-2,-3.821926E-2,2.276857E-1,-3.911152E-2,-1.0787457E0,-1.295727E0,-1.2398578E0,-7.357093E-2,2.8513488E-1,-9.80532E-1,3.7918216E-1,9.3023315E-2,-3.3914822E-1,-5.6529712E-2,-6.173393E-1,-3.8081314E-2,-3.2399375E-2,-4.291069E-1,-4.5529526E-2,-6.3130534E-1,-7.5863576E-1,-6.345062E-2,3.1886065E-1,-5.065488E-1,-1.1046118E0,-3.3926424E-2,-9.7686076E-1,-6.598462E-2,-6.436635E-2,-3.833559E-2,-2.614187E-2,4.9899775E-1,-7.118945E-2,-1.4039203E-2,4.0533367E-1,-2.969737E-1,1.21111624E-1,-6.0833114E-1,-4.5194113E-1,-2.572318E-1,-3.7073173E-2,-2.8628005E-2,-3.909474E-1,-2.5886199E-2,-5.956421E-1,-3.3449393E-2,-3.444098E-2,-6.513772E-2,1.847628E-2,-2.0765858E-2,-1.3754131E-2,-3.278084E-2,-5.5913944E-2,-1.918303E-2,-3.2647513E-2,-6.297449E-2,3.840828E-2,-1.5308357E-2,2.1022657E-2,-3.1764355E-2,-1.703369E-2,-7.3172426E-4,2.1799486E-3,9.294811E-3,-1.5493112E-2,-3.8879197E-2,-2.3392275E-2,1.2015901E-2,-1.3224594E-2,1.0110597E-2,-1.6335435E-2,-2.5964407E-2,-3.3318117E-2,-2.799801E-2],"categories":[],"categories_nodes":[],"categories_segments":[],"categories_sizes":[],"default_left":[0,0,0,0,0,0,0,0,0,0,0,0,0,0,0,0,0,0,0,0,0,0,0,0,0,0,0,0,0,0,0,0,0,0,0,0,0,0,0,0,0,0,0,0,0,0,0,0,0,0,0,0,0,0,0,0,0,0,0,0,0,0,0,0,0,0,0,0,0,0,0,0,0,0,0,0,0,0,0,0,0,0,0,0,0,0,0,0,0,0,0,0,0,0,0,0,0,0,0,0,0,0,0,0,0,0,0,0,0],"id":11,"left_children":[1,3,5,7,9,11,13,15,17,19,21,23,25,27,29,31,33,35,37,39,41,43,-1,45,47,49,51,-1,-1,-1,53,-1,55,-1,-1,-1,-1,57,-1,59,61,63,-1,65,67,69,71,73,-1,75,-1,-1,77,-1,79,81,-1,83,85,87,-1,89,-1,-1,-1,-1,91,-1,-1,93,95,97,99,101,103,-1,-1,105,-1,107,-1,-1,-1,-1,-1,-1,-1,-1,-1,-1,-1,-1,-1,-1,-1,-1,-1,-1,-1,-1,-1,-1,-1,-1,-1,-1,-1,-1,-1],"loss_changes":[1.887897E3,1.4353442E2,1.4034199E3,9.372763E1,3.379651E1,5.7471277E2,3.604309E0,3.097821E1,5.490621E1,8.07373E0,1.1552938E1,4.6313837E2,4.359253E0,3.4800415E0,2.2627106E0,2.0460327E1,8.379359E0,5.215492E-1,1.2119326E1,6.91626E0,8.1658936E-1,1.3898367E1,0E0,2.726079E2,1.16215515E1,1.6096497E0,2.4269485E-1,0E0,0E0,0E0,3.912964E-1,0E0,1.7036865E1,0E0,0E0,0E0,0E0,1.1507794E1,0E0,4.076538E0,6.812439E-1,8.132324E-1,0E0,5.217846E0,3.2828064E0,1.6797241E2,1.0111012E2,1.1351639E1,0E0,2.6817627E0,0E0,0E0,1.9816399E-1,0E0,8.023071E-2,1.9822662E1,0E0,5.793619E0,3.8278198E-1,3.876892E0,0E0,1.2078819E0,0E0,0E0,0E0,0E0,5.3317904E0,0E0,0E0,1.4403613E2,4.3257675E0,2.4748901E1,9.6332245E0,5.8996506E0,2.4822807E0,0E0,0E0,6.234169E-1,0E0,1.1450958E-1,0E0,0E0,0E0,0E0,0E0,0E0,0E0,0E0,0E0,0E0,0E0,0E0,0E0,0E0,0E0,0E0,0E0,0E0,0E0,0E0,0E0,0E0,0E0,0E0,0E0,0E0,0E0,0E0,0E0],"parents":[2147483647,0,0,1,1,2,2,3,3,4,4,5,5,6,6,7,7,8,8,9,9,10,10,11,11,12,12,13,13,14,14,15,15,16,16,17,17,18,18,19,19,20,20,21,21,23,23,24,24,25,25,26,26,30,30,32,32,37,37,39,39,40,40,41,41,43,43,44,44,45,45,46,46,47,47,49,49,52,52,54,54,55,55,57,57,58,58,59,59,61,61,66,66,69,69,70,70,71,71,72,72,73,73,74,74,77,77,79,79],"right_children":[2,4,6,8,10,12,14,16,18,20,22,24,26,28,30,32,34,36,38,40,42,44,-1,46,48,50,52,-1,-1,-1,54,-1,56,-1,-1,-1,-1,58,-1,60,62,64,-1,66,68,70,72,74,-1,76,-1,-1,78,-1,80,82,-1,84,86,88,-1,90,-1,-1,-1,-1,92,-1,-1,94,96,98,100,102,104,-1,-1,106,-1,108,-1,-1,-1,-1,-1,-1,-1,-1,-1,-1,-1,-1,-1,-1,-1,-1,-1,-1,-1,-1,-1,-1,-1,-1,-1,-1,-1,-1,-1],"split_conditions":[9.7E1,1.7E1,1E0,1E2,1E0,1E0,1E2,1E0,1.3E1,5.7E1,1E0,1E0,1E0,2.023E3,2.023E3,6E0,2.025E3,1E0,1E0,1E0,2.025E3,5E1,-6.432177E-2,1E0,1E0,5E1,2.024E3,-1.5679715E-2,-3.86974E-2,-5.177333E-2,1E0,-7.583883E-2,1E0,9.22307E-3,-2.4811491E-2,-7.0016846E-2,-3.821926E-2,1E0,-3.911152E-2,1E0,2.3E1,1E0,-7.357093E-2,3.2E1,1E0,1E0,1E0,2.025E3,-5.6529712E-2,2.025E3,-3.8081314E-2,-3.2399375E-2,5E1,-4.5529526E-2,2.025E3,1E0,-6.345062E-2,1E0,2.025E3,1E0,-3.3926424E-2,1E0,-6.598462E-2,-6.436635E-2,-3.833559E-2,-2.614187E-2,1E0,-7.118945E-2,-1.4039203E-2,1E0,5E1,1E0,2.025E3,2E0,2E0,-3.7073173E-2,-2.8628005E-2,2.025E3,-2.5886199E-2,2.024E3,-3.3449393E-2,-3.444098E-2,-6.513772E-2,1.847628E-2,-2.0765858E-2,-1.3754131E-2,-3.278084E-2,-5.5913944E-2,-1.918303E-2,-3.2647513E-2,-6.297449E-2,3.840828E-2,-1.5308357E-2,2.1022657E-2,-3.1764355E-2,-1.703369E-2,-7.3172426E-4,2.1799486E-3,9.294811E-3,-1.5493112E-2,-3.8879197E-2,-2.3392275E-2,1.2015901E-2,-1.3224594E-2,1.0110597E-2,-1.6335435E-2,-2.5964407E-2,-3.3318117E-2,-2.799801E-2],"split_indices":[1125,1125,437,1126,486,916,1126,178,1125,1125,524,917,54,1129,1129,1124,1129,142,439,122,1129,1126,0,38,2,1126,1129,0,0,0,29,0,437,0,0,0,0,437,0,22,1124,89,0,1124,141,765,136,1129,0,1129,0,0,1126,0,1129,46,0,136,1129,153,0,29,0,0,0,0,635,0,0,42,1126,2,1129,1127,1127,0,0,1129,0,1129,0,0,0,0,0,0,0,0,0,0,0,0,0,0,0,0,0,0,0,0,0,0,0,0,0,0,0,0,0],"split_type":[0,0,0,0,0,0,0,0,0,0,0,0,0,0,0,0,0,0,0,0,0,0,0,0,0,0,0,0,0,0,0,0,0,0,0,0,0,0,0,0,0,0,0,0,0,0,0,0,0,0,0,0,0,0,0,0,0,0,0,0,0,0,0,0,0,0,0,0,0,0,0,0,0,0,0,0,0,0,0,0,0,0,0,0,0,0,0,0,0,0,0,0,0,0,0,0,0,0,0,0,0,0,0,0,0,0,0,0,0],"sum_hessian":[2.0581342E4,2.0130594E3,1.8568281E4,9.547615E2,1.058298E3,1.6748766E4,1.8195162E3,7.4449194E2,2.1026955E2,1.00970636E3,4.8591644E1,1.5887194E4,8.6157104E2,1.3411478E3,4.7836844E2,6.7403436E2,7.0457565E1,2.9730469E1,1.8053906E2,7.693168E2,2.4038959E2,3.9123074E1,9.468574E0,1.4621196E4,1.2659976E3,7.0620764E2,1.5536343E2,1.9228289E1,1.3219196E3,1.7828112E1,4.6054034E2,4.6949844E1,6.2708453E2,3.3526333E1,3.6931236E1,2.2939798E1,6.790671E0,1.6876993E2,1.1769144E1,4.8241742E2,2.8689935E2,8.829918E1,1.520904E2,2.7700645E1,1.1422428E1,9.490933E3,5.130264E3,1.2478458E3,1.8151716E1,5.815098E2,1.2469779E2,1.1036533E1,1.4432689E2,1.1221996E1,4.4931833E2,5.496748E2,7.740971E1,1.5075194E2,1.8017986E1,4.512436E2,3.1173834E1,2.3266481E1,2.6363287E2,7.8492195E1,9.806986E0,5.397313E0,2.2303331E1,6.2718716E0,5.150556E0,9.138051E3,3.528818E2,4.933648E3,1.9661607E2,5.225689E2,7.25277E2,1.4945161E2,4.3205823E2,1.0545633E2,3.8870564E1,2.4084264E2,2.084757E2,4.893374E2,6.033743E1,1.4161229E2,9.139645E0,8.435656E0,9.582331E0,4.4217148E2,9.0721035E0,1.2548828E1,1.0717653E1,1.684288E1,5.4604506E0,9.007865E3,1.3018576E2,3.050983E2,4.7783516E1,2.2476384E3,2.6860095E3,7.238693E1,1.2422914E2,5.1129083E2,1.1278061E1,7.1462646E2,1.0650473E1,7.316147E1,3.2294865E1,7.389926E1,1.6694337E2],"tree_param":{"num_deleted":"0","num_feature":"1130","num_nodes":"109","size_leaf_vector":"1"}},{"base_weights":[-1.7452383E-3,-4.0701538E-1,2.6817086E-1,-9.237527E-1,-2.5987452E-1,-6.3936424E-1,3.4593123E-1,-9.711526E-1,2.3994428E-1,-1.0187123E0,-1.6654684E-1,-3.3612996E-1,-9.8125935E-1,4.0371674E-1,-3.6195806E-1,-6.5639965E-2,-8.915772E-1,-1.0576247E-2,1.8787114E-2,-8.204092E-1,-1.2059709E0,-1.1807646E-1,-9.467102E-1,-9.925367E-1,-2.5111544E-1,-1.0483681E0,-3.9313972E-2,4.3909973E-1,-4.2816353E-1,-3.990083E-1,-2.856123E-1,-7.828124E-1,-5.2091535E-2,-9.253043E-1,-3.705316E-1,-1.0383624E0,-7.016232E-2,-5.893759E-2,-7.1722174E-1,-4.4667218E-2,-5.5151384E-2,-1.3379612E0,-7.460716E-1,-4.0304202E-1,1.8212314E-1,-1.0871316E0,-4.2297834E-1,2.2497773E-1,-5.13702E-2,3.8086462E-1,7.258202E-1,-3.0242732E-1,-8.4316885E-1,-9.738697E-3,-4.0894383E-1,-2.8596167E-2,-1.3861622E-2,-7.200188E-1,-1.1908523E0,-9.807475E-1,-1.0075194E-2,-4.92031E-2,-2.5024134E-1,-9.3367E-1,-6.2820375E-2,-8.0876224E-2,6.58132E-2,-3.5260163E-2,-5.113998E-2,-7.328455E-2,-3.6596056E-2,-5.8389765E-1,-6.928014E-2,-5.496672E-1,-6.921917E-2,2.5714946E-1,-2.3856783E-2,-1.1091119E0,-7.9258075E-3,-5.04596E-1,-8.688184E-3,2.536036E-2,-3.1795908E-2,3.5419002E-1,8.417099E-1,7.046458E-1,4.1265562E-2,5.757314E-2,-3.8456082E-1,-3.0476162E-2,-8.0043264E-2,-2.0199297E-2,-2.793366E-2,-3.7344366E-2,5.950984E-4,-5.5514604E-2,-7.1964584E-2,-7.3708095E-2,-4.6623826E-2,-8.346113E-3,-4.4477575E-2,-4.2270344E-2,-5.7356652E-2,-5.7028155E-3,3.070266E-2,-3.874467E-2,-2.2548402E-4,-3.1330284E-2,3.9921597E-2,6.3594685E-5,-2.740016E-2,1.5295166E-2,-2.1781778E-2,-5.7192117E-2,-3.624996E-2,-4.0469673E-2,-1.5167867E-2,1.9393558E-2,-3.8042346E-3,3.8350478E-2,6.381429E-2,3.4932997E-2,5.3910147E-2,-1.9669652E-2,-6.223213E-3],"categories":[],"categories_nodes":[],"categories_segments":[],"categories_sizes":[],"default_left":[0,0,0,0,0,0,0,0,0,0,0,0,0,0,0,0,0,0,0,0,0,0,0,0,0,0,0,0,0,0,0,0,0,0,0,0,0,0,0,0,0,0,0,0,0,0,0,0,0,0,0,0,0,0,0,0,0,0,0,0,0,0,0,0,0,0,0,0,0,0,0,0,0,0,0,0,0,0,0,0,0,0,0,0,0,0,0,0,0,0,0,0,0,0,0,0,0,0,0,0,0,0,0,0,0,0,0,0,0,0,0,0,0,0,0,0,0,0,0,0,0,0,0,0,0],"id":12,"left_children":[1,3,5,7,9,11,13,15,17,19,21,23,25,27,29,-1,31,-1,-1,33,35,37,39,41,43,45,47,49,51,53,55,57,-1,59,61,63,-1,65,67,-1,-1,69,71,73,75,77,79,81,-1,83,85,87,89,-1,91,-1,-1,93,95,97,-1,-1,99,101,-1,103,-1,-1,-1,-1,-1,105,-1,107,109,111,-1,113,-1,115,-1,-1,-1,117,119,121,-1,-1,123,-1,-1,-1,-1,-1,-1,-1,-1,-1,-1,-1,-1,-1,-1,-1,-1,-1,-1,-1,-1,-1,-1,-1,-1,-1,-1,-1,-1,-1,-1,-1,-1,-1,-1,-1,-1],"loss_changes":[2.2525156E3,6.2554553E2,8.724189E2,1.00915405E2,4.536011E2,1.0069211E2,4.6586267E2,4.6264038E1,4.5166373E0,2.4860779E1,2.156444E2,2.8575043E1,2.8797241E1,3.100266E2,2.2491302E0,0E0,2.2291138E1,0E0,0E0,1.5767242E1,1.0151123E1,1.9035846E2,1.5982666E0,3.8171196E0,3.0421986E1,9.74884E0,8.561869E0,1.682135E2,2.2060577E1,1.0274734E0,4.4095612E-1,2.0245728E1,0E0,1.0848984E1,4.5688477E0,3.1259766E0,0E0,1.4763693E2,8.786926E-1,0E0,0E0,4.9889374E-1,2.8176613E0,1.662051E1,6.0431023E0,7.8947144E0,3.8816452E-1,6.5459595E0,0E0,1.0278406E2,2.8536377E0,3.99687E1,1.6366066E1,0E0,8.431244E-2,0E0,0E0,1.43003845E1,3.3052063E-1,4.5305023E0,0E0,0E0,2.8046734E0,1.4294968E0,0E0,1.1111781E2,0E0,0E0,0E0,0E0,0E0,3.378069E0,0E0,2.5064903E1,3.6195202E0,3.7901068E0,0E0,4.2139587E0,0E0,8.27456E-1,0E0,0E0,0E0,1.1509723E2,1.3698212E1,2.2265625E0,0E0,0E0,6.222496E-1,0E0,0E0,0E0,0E0,0E0,0E0,0E0,0E0,0E0,0E0,0E0,0E0,0E0,0E0,0E0,0E0,0E0,0E0,0E0,0E0,0E0,0E0,0E0,0E0,0E0,0E0,0E0,0E0,0E0,0E0,0E0,0E0,0E0,0E0,0E0,0E0],"parents":[2147483647,0,0,1,1,2,2,3,3,4,4,5,5,6,6,7,7,8,8,9,9,10,10,11,11,12,12,13,13,14,14,16,16,19,19,20,20,21,21,22,22,23,23,24,24,25,25,26,26,27,27,28,28,29,29,30,30,31,31,33,33,34,34,35,35,37,37,38,38,41,41,42,42,43,43,44,44,45,45,46,46,47,47,49,49,50,50,51,51,52,52,54,54,57,57,58,58,59,59,62,62,63,63,65,65,71,71,73,73,74,74,75,75,77,77,79,79,83,83,84,84,85,85,88,88],"right_children":[2,4,6,8,10,12,14,16,18,20,22,24,26,28,30,-1,32,-1,-1,34,36,38,40,42,44,46,48,50,52,54,56,58,-1,60,62,64,-1,66,68,-1,-1,70,72,74,76,78,80,82,-1,84,86,88,90,-1,92,-1,-1,94,96,98,-1,-1,100,102,-1,104,-1,-1,-1,-1,-1,106,-1,108,110,112,-1,114,-1,116,-1,-1,-1,118,120,122,-1,-1,124,-1,-1,-1,-1,-1,-1,-1,-1,-1,-1,-1,-1,-1,-1,-1,-1,-1,-1,-1,-1,-1,-1,-1,-1,-1,-1,-1,-1,-1,-1,-1,-1,-1,-1,-1,-1],"split_conditions":[2E0,1E0,9.1E1,1E0,9.5E1,1.8E1,1E0,9.5E1,1E0,2.4E1,1E0,1.3E1,1E0,1E0,5E1,-6.5639965E-2,1E0,-1.0576247E-2,1.8787114E-2,1E2,1E0,1E0,5E1,6E0,1E2,3E0,5E1,1E0,5E1,1E0,1E0,1E0,-5.2091535E-2,1E0,1.3E1,1E0,-7.016232E-2,1E0,1E0,-4.4667218E-2,-5.5151384E-2,1E0,9E0,1E0,1E0,1E0,1E0,1E0,-5.13702E-2,3E0,5E1,1E0,1E0,-9.738697E-3,3E0,-2.8596167E-2,-1.3861622E-2,1E0,5E1,6E0,-1.0075194E-2,-4.92031E-2,1E0,5.4E1,-6.2820375E-2,1E0,6.58132E-2,-3.5260163E-2,-5.113998E-2,-7.328455E-2,-3.6596056E-2,1E0,-6.928014E-2,3E0,1E0,1E0,-2.3856783E-2,1E0,-7.9258075E-3,1E0,-8.688184E-3,2.536036E-2,-3.1795908E-2,1E0,1E0,3E0,4.1265562E-2,5.757314E-2,3E0,-3.0476162E-2,-8.0043264E-2,-2.0199297E-2,-2.793366E-2,-3.7344366E-2,5.950984E-4,-5.5514604E-2,-7.1964584E-2,-7.3708095E-2,-4.6623826E-2,-8.346113E-3,-4.4477575E-2,-4.2270344E-2,-5.7356652E-2,-5.7028155E-3,3.070266E-2,-3.874467E-2,-2.2548402E-4,-3.1330284E-2,3.9921597E-2,6.3594685E-5,-2.740016E-2,1.5295166E-2,-2.1781778E-2,-5.7192117E-2,-3.624996E-2,-4.0469673E-2,-1.5167867E-2,1.9393558E-2,-3.8042346E-3,3.8350478E-2,6.381429E-2,3.4932997E-2,5.3910147E-2,-1.9669652E-2,-6.223213E-3],"split_indices":[1123,1123,1124,855,1125,1125,437,1125,141,1125,437,1125,486,99,1126,0,208,0,0,1126,289,917,1126,1124,1126,1123,1126,287,1126,15,15,917,0,178,1125,917,0,216,2,0,0,546,1124,142,437,218,38,248,0,1123,1126,104,59,0,1123,0,0,500,1126,1124,0,0,367,1124,0,360,0,0,0,0,0,546,0,1123,52,811,0,287,0,89,0,0,0,917,335,1123,0,0,1123,0,0,0,0,0,0,0,0,0,0,0,0,0,0,0,0,0,0,0,0,0,0,0,0,0,0,0,0,0,0,0,0,0,0,0,0],"split_type":[0,0,0,0,0,0,0,0,0,0,0,0,0,0,0,0,0,0,0,0,0,0,0,0,0,0,0,0,0,0,0,0,0,0,0,0,0,0,0,0,0,0,0,0,0,0,0,0,0,0,0,0,0,0,0,0,0,0,0,0,0,0,0,0,0,0,0,0,0,0,0,0,0,0,0,0,0,0,0,0,0,0,0,0,0,0,0,0,0,0,0,0,0,0,0,0,0,0,0,0,0,0,0,0,0,0,0,0,0,0,0,0,0,0,0,0,0,0,0,0,0,0,0,0,0],"sum_hessian":[2.058968E4,8.230986E3,1.2358693E4,1.8229818E3,6.408005E3,9.746874E2,1.1384006E4,1.7518755E3,7.110628E1,7.0059033E2,5.7074146E3,5.177548E2,4.5693256E2,1.0525382E4,8.586236E2,3.277916E2,1.4240839E3,1.6143185E1,5.4963093E1,3.4313385E2,3.5745648E2,5.3747676E3,3.326467E2,5.8009068E1,4.5974573E2,4.2633896E2,3.0593616E1,1.0096531E4,4.288507E2,5.7435547E2,2.8426816E2,8.300829E2,5.9400104E2,2.7721765E2,6.591618E1,1.9692015E2,1.6053633E2,4.8930615E3,4.8170624E2,2.5346857E2,7.917813E1,2.2142166E1,3.5866905E1,3.4060434E2,1.1914141E2,4.006097E2,2.5729235E1,2.4666887E1,5.9267287E0,8.394269E3,1.7022627E3,3.3064365E2,9.820706E1,2.8067549E1,5.462879E2,5.8317943E0,2.7843634E2,7.2198553E2,1.0809737E2,2.5703552E2,2.0182123E1,9.491833E0,5.6424347E1,1.3691992E2,6.0000225E1,4.817226E3,7.583546E1,4.6697495E2,1.4731292E1,1.6979965E1,5.162201E0,3.026229E1,5.6046143E0,2.3599986E2,1.0460446E2,1.07651825E2,1.1489585E1,3.910515E2,9.558196E0,1.8307528E1,7.421706E0,1.8973694E1,5.6931934E0,7.9368545E3,4.574142E2,1.4110422E3,2.9122043E2,1.6918745E1,3.137249E2,7.6541046E1,2.1666012E1,5.3300476E2,1.3283123E1,6.965322E2,2.5453264E1,8.6062035E1,2.2035334E1,2.0088173E1,2.3694736E2,5.1172703E1,5.2516437E0,1.0070792E2,3.6212006E1,4.598639E3,2.1858676E2,2.2375996E1,7.8862934E0,2.238346E2,1.2165275E1,9.186737E1,1.2737092E1,1.0123064E2,6.4211864E0,3.5657294E2,3.4478584E1,5.8810573E0,1.2426471E1,7.3609814E3,5.758732E2,3.928767E2,6.4537506E1,1.3918766E3,1.9165625E1,3.0255396E2,1.1170946E1],"tree_param":{"num_deleted":"0","num_feature":"1130","num_nodes":"125","size_leaf_vector":"1"}},{"base_weights":[1.6072872E-3,-3.8234147E-1,2.569188E-1,-8.917111E-1,-2.3686598E-1,-5.68219E-1,3.2747748E-1,-9.377092E-1,1.6094889E-1,-9.831967E-1,-1.4584701E-1,-2.7940986E-1,-8.922362E-1,3.840811E-1,-3.6333597E-1,-6.532281E-2,-8.534132E-1,-1.02528175E-2,2.6369998E-1,-1.0379343E0,-3.481507E-1,-5.9127256E-2,-5.432487E-1,-4.1925076E-1,1.1373143E-1,-9.668714E-1,1.7421721E-1,4.1769242E-1,-3.282503E-1,-3.9970884E-1,-2.9079756E-1,-7.441739E-1,-5.0241984E-2,1.3762909E-2,6.0333824E-3,-1.0565665E0,2.260946E-2,-1.7555164E-1,-5.924055E-1,8.953391E-3,-6.876994E-1,-9.174237E-1,-3.6416677E-1,-7.115088E-2,-3.727654E-1,-5.9807736E-2,2.596311E-1,-1.009499E0,-3.4388372E-1,-7.75038E-2,5.943306E-2,3.6033612E-1,7.0374733E-1,-3.7666804E-1,5.044509E-1,-6.1465013E-3,-4.127716E-1,-3.774452E-2,-1.387723E-2,-6.858248E-1,-1.1266354E0,-8.899712E-1,-1.2132013E0,-1.2956065E-2,-6.47844E-4,-5.4432757E-2,-3.7213987E-1,-1.4388142E-2,6.464743E-2,-3.4042787E-2,-5.047364E-2,-8.554952E-1,-5.5720903E-2,-3.1231016E-1,-2.7755085E-2,-3.2178783E-1,-5.1550508E-2,3.2443804E-1,-1.3049088E-2,-1.05689E0,-5.709357E-1,-2.6932595E-2,-5.9068743E-3,1.9182583E-2,-3.1333454E-2,3.7535015E-1,-3.2491842E-1,6.972502E-1,5.7152357E-2,-3.4019476E-1,-2.475364E-2,3.2361496E-2,1.3909935E-2,-2.0243319E-2,-3.21566E-2,-3.565955E-2,4.2466447E-4,-5.1409345E-2,-7.220098E-2,-4.769901E-2,-2.3392964E-2,-5.4873068E-2,-6.879579E-2,-4.839366E-3,-4.202184E-2,1.0117958E-3,-4.1298788E-2,-5.49029E-2,-4.154936E-2,-1.6554143E-2,3.7856263E-3,-1.3304643E-2,-4.765612E-2,1.8160813E-2,-7.952332E-3,-5.3981524E-2,-6.5524816E-3,-1.527448E-2,-5.483141E-2,2.1386988E-2,9.498003E-3,-5.3773313E-3,-4.1936956E-2,3.3920925E-2,3.918516E-2,-1.2342661E-2,-1.7708289E-2],"categories":[],"categories_nodes":[],"categories_segments":[],"categories_sizes":[],"default_left":[0,0,0,0,0,0,0,0,0,0,0,0,0,0,0,0,0,0,0,0,0,0,0,0,0,0,0,0,0,0,0,0,0,0,0,0,0,0,0,0,0,0,0,0,0,0,0,0,0,0,0,0,0,0,0,0,0,0,0,0,0,0,0,0,0,0,0,0,0,0,0,0,0,0,0,0,0,0,0,0,0,0,0,0,0,0,0,0,0,0,0,0,0,0,0,0,0,0,0,0,0,0,0,0,0,0,0,0,0,0,0,0,0,0,0,0,0,0,0,0,0,0,0,0,0,0,0],"id":13,"left_children":[1,3,5,7,9,11,13,15,17,19,21,23,25,27,29,-1,31,-1,33,35,37,39,41,43,45,47,49,51,53,55,57,59,-1,-1,-1,61,-1,63,65,67,69,71,73,-1,75,-1,77,79,81,83,-1,85,87,89,91,-1,93,-1,-1,95,97,99,101,-1,-1,-1,103,105,-1,-1,-1,107,-1,109,-1,111,-1,113,-1,115,117,-1,-1,-1,-1,119,121,123,-1,125,-1,-1,-1,-1,-1,-1,-1,-1,-1,-1,-1,-1,-1,-1,-1,-1,-1,-1,-1,-1,-1,-1,-1,-1,-1,-1,-1,-1,-1,-1,-1,-1,-1,-1,-1,-1,-1],"loss_changes":[2.0017305E3,6.040032E2,7.1423505E2,8.7929565E1,4.3077655E2,9.0071014E1,4.4198145E2,5.261975E1,2.9404707E0,2.3465088E1,1.9485562E2,2.8259266E1,3.6450134E1,2.5021045E2,2.0735245E0,0E0,2.2497314E1,0E0,2.713871E-2,1.814264E1,2.1951928E0,1.9884338E2,6.741443E1,1.6951134E1,2.6034351E1,1.0812622E1,7.993917E0,1.6328967E2,1.916835E1,1.9442902E0,1.4740162E0,1.749524E1,0E0,0E0,0E0,1.5060913E1,0E0,4.4072616E-1,1.9272609E0,1.2577536E2,1.4356995E-1,2.8394165E0,6.5412445E0,0E0,1.1720421E1,0E0,4.2221355E0,7.4937134E0,1.1416152E0,6.672829E0,0E0,8.563208E1,3.7700806E0,1.6734619E0,5.7369137E-1,0E0,6.187439E-1,0E0,0E0,1.3758423E1,1.631607E0,7.725479E0,4.267029E0,0E0,0E0,0E0,2.0638356E0,1.1581035E2,0E0,0E0,0E0,4.0168762E-1,0E0,4.00523E0,0E0,1.1533512E1,0E0,2.1312428E0,0E0,7.259674E0,5.265231E0,0E0,0E0,0E0,0E0,7.885083E1,1.9760777E1,1.9971313E0,0E0,3.0197144E-1,0E0,0E0,0E0,0E0,0E0,0E0,0E0,0E0,0E0,0E0,0E0,0E0,0E0,0E0,0E0,0E0,0E0,0E0,0E0,0E0,0E0,0E0,0E0,0E0,0E0,0E0,0E0,0E0,0E0,0E0,0E0,0E0,0E0,0E0,0E0,0E0,0E0],"parents":[2147483647,0,0,1,1,2,2,3,3,4,4,5,5,6,6,7,7,8,8,9,9,10,10,11,11,12,12,13,13,14,14,16,16,18,18,19,19,20,20,21,21,22,22,23,23,24,24,25,25,26,26,27,27,28,28,29,29,30,30,31,31,35,35,37,37,38,38,39,39,40,40,41,41,42,42,44,44,46,46,47,47,48,48,49,49,51,51,52,52,53,53,54,54,56,56,59,59,60,60,61,61,62,62,66,66,67,67,71,71,73,73,75,75,77,77,79,79,80,80,85,85,86,86,87,87,89,89],"right_children":[2,4,6,8,10,12,14,16,18,20,22,24,26,28,30,-1,32,-1,34,36,38,40,42,44,46,48,50,52,54,56,58,60,-1,-1,-1,62,-1,64,66,68,70,72,74,-1,76,-1,78,80,82,84,-1,86,88,90,92,-1,94,-1,-1,96,98,100,102,-1,-1,-1,104,106,-1,-1,-1,108,-1,110,-1,112,-1,114,-1,116,118,-1,-1,-1,-1,120,122,124,-1,126,-1,-1,-1,-1,-1,-1,-1,-1,-1,-1,-1,-1,-1,-1,-1,-1,-1,-1,-1,-1,-1,-1,-1,-1,-1,-1,-1,-1,-1,-1,-1,-1,-1,-1,-1,-1,-1],"split_conditions":[2E0,1E0,9.7E1,1E0,9.5E1,1.6E1,1E0,9.5E1,1E0,1E0,1E0,1E2,1E0,1E0,5E1,-6.532281E-2,1E0,-1.02528175E-2,5E1,1E0,1.3E1,1E0,1E0,6E0,1.2E1,3E0,1E0,1E0,3E0,1E0,1E0,1E0,-5.0241984E-2,1.3762909E-2,6.0333824E-3,3E1,2.260946E-2,5E1,3.2E1,1E0,1E0,5E1,5E1,-7.115088E-2,1E0,-5.9807736E-2,1E0,1E0,1E0,1E0,5.943306E-2,1E0,3E0,5E1,1E0,-6.1465013E-3,3E0,-3.774452E-2,-1.387723E-2,1E0,5E1,1E0,1E0,-1.2956065E-2,-6.47844E-4,-5.4432757E-2,4.3E1,1E0,6.464743E-2,-3.4042787E-2,-5.047364E-2,1E0,-5.5720903E-2,2E0,-2.7755085E-2,1E0,-5.1550508E-2,1E0,-1.3049088E-2,1E0,4.3E1,-2.6932595E-2,-5.9068743E-3,1.9182583E-2,-3.1333454E-2,1E0,1E0,5E1,5.7152357E-2,1E0,-2.475364E-2,3.2361496E-2,1.3909935E-2,-2.0243319E-2,-3.21566E-2,-3.565955E-2,4.2466447E-4,-5.1409345E-2,-7.220098E-2,-4.769901E-2,-2.3392964E-2,-5.4873068E-2,-6.879579E-2,-4.839366E-3,-4.202184E-2,1.0117958E-3,-4.1298788E-2,-5.49029E-2,-4.154936E-2,-1.6554143E-2,3.7856263E-3,-1.3304643E-2,-4.765612E-2,1.8160813E-2,-7.952332E-3,-5.3981524E-2,-6.5524816E-3,-1.527448E-2,-5.483141E-2,2.1386988E-2,9.498003E-3,-5.3773313E-3,-4.1936956E-2,3.3920925E-2,3.918516E-2,-1.2342661E-2,-1.7708289E-2],"split_indices":[1123,1123,1125,855,1125,1124,437,1125,141,178,122,1126,486,439,1126,0,208,0,1126,37,1124,89,339,1124,1124,1123,601,479,1123,29,29,917,0,0,0,1125,0,1126,1124,125,1128,1126,1126,0,46,0,208,524,89,393,0,813,1123,1126,99,0,1123,0,0,500,1126,22,739,0,0,0,1124,46,0,0,0,131,0,1127,0,481,0,811,0,218,1124,0,0,0,0,630,2,1126,0,99,0,0,0,0,0,0,0,0,0,0,0,0,0,0,0,0,0,0,0,0,0,0,0,0,0,0,0,0,0,0,0,0,0,0,0,0,0],"split_type":[0,0,0,0,0,0,0,0,0,0,0,0,0,0,0,0,0,0,0,0,0,0,0,0,0,0,0,0,0,0,0,0,0,0,0,0,0,0,0,0,0,0,0,0,0,0,0,0,0,0,0,0,0,0,0,0,0,0,0,0,0,0,0,0,0,0,0,0,0,0,0,0,0,0,0,0,0,0,0,0,0,0,0,0,0,0,0,0,0,0,0,0,0,0,0,0,0,0,0,0,0,0,0,0,0,0,0,0,0,0,0,0,0,0,0,0,0,0,0,0,0,0,0,0,0,0,0],"sum_hessian":[2.0418418E4,8.154472E3,1.2263946E4,1.8102443E3,6.3442275E3,9.6542773E2,1.1298519E4,1.7346495E3,7.559478E1,6.884255E2,5.6558022E3,5.1159454E2,4.538332E2,1.0443399E4,8.551184E2,3.1984143E2,1.4148081E3,1.613875E1,5.9456028E1,6.330666E2,5.5358887E1,4.643839E3,1.0119635E3,3.7750385E2,1.340907E2,4.2432422E2,2.950897E1,9.97336E3,4.7003897E2,5.656143E2,2.895041E2,8.257126E2,5.890955E2,5.3508503E1,5.947524E0,6.2560223E2,7.4643593E0,3.3684418E1,2.1674467E1,4.1907637E3,4.5307498E2,3.2604388E2,6.859196E2,1.530287E1,3.62201E2,1.2648518E1,1.21442184E2,3.9641858E2,2.7905655E1,2.430342E1,5.2055516E0,8.30979E3,1.6635708E3,4.4484125E2,2.5197716E1,2.6305744E1,5.3930853E2,6.2746E0,2.832295E2,7.1906525E2,1.0664732E2,3.067093E2,3.1889294E2,2.1450636E1,1.2233783E1,5.311472E0,1.6362995E1,4.1168354E3,7.3928345E1,4.469948E2,6.0801764E0,2.5251256E2,7.353133E1,5.419021E2,1.4401749E2,3.3768948E2,2.4511482E1,1.0850425E2,1.2937934E1,3.5628107E2,4.0137505E1,1.3998784E1,1.390687E1,1.3275098E1,1.102832E1,8.13221E3,1.7757991E2,1.6420992E3,2.1471447E1,3.436893E2,1.0115196E2,1.4036922E1,1.1160793E1,5.24501E2,1.4807586E1,6.9191077E2,2.7154484E1,8.4874855E1,2.177247E1,2.6502414E2,4.168515E1,1.9122935E2,1.276636E2,1.1198588E1,5.1644063E0,3.9492056E3,1.6762968E2,1.877792E1,2.3373465E2,5.1728033E2,2.4621773E1,3.1176605E2,2.5923447E1,1.0086953E2,7.63472E0,3.474723E2,8.808767E0,2.7847416E1,1.2290091E1,6.339014E3,1.7931959E3,1.2577481E2,5.18051E1,1.3566005E3,2.8549884E2,4.8107265E1,2.9558203E2],"tree_param":{"num_deleted":"0","num_feature":"1130","num_nodes":"127","size_leaf_vector":"1"}},{"base_weights":[3.2097748E-3,-8.1402117E-1,8.966774E-2,-5.4991484E-1,-1.0582665E0,1.6821176E-1,-6.56539E-1,-6.979831E-1,-1.8982235E-2,-1.0959339E0,-2.5005734E-1,2.0647226E-1,-5.425824E-1,-6.8457127E-1,-5.785633E-1,-8.126108E-1,-3.757983E-1,-1.1107886E0,1.5883803E-1,-9.855394E-1,-1.2004577E0,5.8959883E-2,-9.645647E-1,2.5198838E-1,-3.2261893E-1,-5.8088624E-1,-3.607925E-1,-1.2069401E-2,-6.903304E-1,-4.5901526E-2,-2.8099537E-2,-8.4093565E-1,2.8233215E-2,-4.2325057E-2,-6.894601E-1,-6.556119E-2,-1.5544675E-2,2.2524606E-1,-4.095312E-2,-9.997316E-1,5.2194763E-3,-8.648964E-1,-1.2247589E0,3.4512165E-1,-3.6393363E-2,-2.3913575E-2,-6.1888482E-2,1.9579323E-1,5.3388613E-1,-3.3560753E-1,1.6347682E-2,-6.567808E-1,-5.532557E-1,-2.6368994E-2,-3.4114084E-1,-6.861013E-1,-4.8117884E-2,-9.04867E-1,-3.682171E-1,1.6429884E-2,-3.0059335E-1,-6.695649E-2,-3.030619E-2,2.7229673E-1,-2.8775802E-2,-9.2840195E-1,-1.2097464E0,-6.4496744E-1,-6.357337E-2,-5.7685632E-2,-6.513872E-2,-6.660237E-2,6.2045187E-2,1.5373427E-1,5.3239846E-1,5.4022527E-1,-6.349099E-2,-4.5049706E-1,-2.5405633E-1,-3.4056988E-2,-2.598009E-2,-2.5922785E-2,-3.5582755E-2,-1.5169725E-2,-2.1636283E-2,-5.42672E-1,-3.4585875E-2,-4.6082E-2,1.9588826E-2,-1.02478916E-4,-2.3809193E-2,-6.675645E-2,-6.704425E-3,1.8508427E-2,-6.211912E-4,-4.8769336E-2,-3.007174E-2,-4.2753063E-2,-6.860689E-2,-5.3193964E-2,-2.4482368E-2,1.4320477E-2,-3.1504497E-2,7.0422413E-3,6.6753484E-2,3.0830462E-2,-2.5108496E-2,2.7118325E-2,-5.822265E-4,-3.0499667E-2,-2.1292798E-2,-1.2021775E-2,-4.736766E-2,-1.7282747E-2,-3.286698E-2],"categories":[],"categories_nodes":[],"categories_segments":[],"categories_sizes":[],"default_left":[0,0,0,0,0,0,0,0,0,0,0,0,0,0,0,0,0,0,0,0,0,0,0,0,0,0,0,0,0,0,0,0,0,0,0,0,0,0,0,0,0,0,0,0,0,0,0,0,0,0,0,0,0,0,0,0,0,0,0,0,0,0,0,0,0,0,0,0,0,0,0,0,0,0,0,0,0,0,0,0,0,0,0,0,0,0,0,0,0,0,0,0,0,0,0,0,0,0,0,0,0,0,0,0,0,0,0,0,0,0,0,0,0,0,0],"id":14,"left_children":[1,3,5,7,9,11,13,15,17,19,21,23,25,27,29,31,33,35,37,39,41,43,45,47,49,51,53,-1,55,-1,-1,57,-1,59,61,-1,-1,63,-1,65,-1,67,69,71,-1,-1,-1,73,75,77,-1,79,81,-1,83,85,-1,87,89,-1,91,-1,-1,93,-1,95,97,99,-1,-1,-1,101,-1,103,105,107,-1,109,111,-1,-1,-1,-1,-1,-1,113,-1,-1,-1,-1,-1,-1,-1,-1,-1,-1,-1,-1,-1,-1,-1,-1,-1,-1,-1,-1,-1,-1,-1,-1,-1,-1,-1,-1,-1],"loss_changes":[1.4428838E3,1.2528613E2,1.0825004E3,7.3889435E1,3.0453003E1,4.5452817E2,3.3222656E0,2.6742676E1,4.0337875E1,9.770264E0,1.0426935E1,3.8196655E2,5.640732E0,3.026062E0,1.9943848E0,2.162619E1,2.0307405E1,4.0969048E0,1.1701693E1,7.571228E0,2.7459106E0,7.7209454E0,1.1245098E0,2.3114441E2,1.0710953E1,9.898834E-1,2.2974586E-1,0E0,6.3604736E-1,0E0,0E0,1.558844E1,0E0,9.273015E0,4.4257584E0,0E0,0E0,6.44882E0,0E0,5.718506E0,0E0,2.2899036E0,7.807007E-1,9.502987E0,0E0,0E0,0E0,1.7224588E2,2.835431E1,1.1362122E1,0E0,1.3191223E-1,2.3893127E0,0E0,2.7572823E-1,5.1171875E-1,0E0,1.05685425E1,2.5262718E0,0E0,9.5193405E0,0E0,0E0,4.479245E0,0E0,4.72818E0,5.2711487E0,1.0252485E0,0E0,0E0,0E0,3.8259025E0,0E0,1.645149E2,1.1809921E2,2.9173584E0,0E0,1.6403656E0,6.4865265E0,0E0,0E0,0E0,0E0,0E0,0E0,8.6042404E-1,0E0,0E0,0E0,0E0,0E0,0E0,0E0,0E0,0E0,0E0,0E0,0E0,0E0,0E0,0E0,0E0,0E0,0E0,0E0,0E0,0E0,0E0,0E0,0E0,0E0,0E0,0E0,0E0,0E0],"parents":[2147483647,0,0,1,1,2,2,3,3,4,4,5,5,6,6,7,7,8,8,9,9,10,10,11,11,12,12,13,13,14,14,15,15,16,16,17,17,18,18,19,19,20,20,21,21,22,22,23,23,24,24,25,25,26,26,28,28,31,31,33,33,34,34,37,37,39,39,41,41,42,42,43,43,47,47,48,48,49,49,51,51,52,52,54,54,55,55,57,57,58,58,60,60,63,63,65,65,66,66,67,67,71,71,73,73,74,74,75,75,77,77,78,78,85,85],"right_children":[2,4,6,8,10,12,14,16,18,20,22,24,26,28,30,32,34,36,38,40,42,44,46,48,50,52,54,-1,56,-1,-1,58,-1,60,62,-1,-1,64,-1,66,-1,68,70,72,-1,-1,-1,74,76,78,-1,80,82,-1,84,86,-1,88,90,-1,92,-1,-1,94,-1,96,98,100,-1,-1,-1,102,-1,104,106,108,-1,110,112,-1,-1,-1,-1,-1,-1,114,-1,-1,-1,-1,-1,-1,-1,-1,-1,-1,-1,-1,-1,-1,-1,-1,-1,-1,-1,-1,-1,-1,-1,-1,-1,-1,-1,-1,-1],"split_conditions":[9.7E1,1.7E1,1E0,1E2,1E0,1E0,1E2,1E0,1.3E1,1E0,4.1E1,1E0,1E0,2.023E3,2.023E3,1E0,2.025E3,1E0,1E0,1E0,3E1,5E1,1E0,1E0,2E0,2.025E3,2.024E3,-1.2069401E-2,1E0,-4.5901526E-2,-2.8099537E-2,1E0,2.8233215E-2,1E0,6E0,-6.556119E-2,-1.5544675E-2,1E0,-4.095312E-2,5.4E1,5.2194763E-3,1E0,2.025E3,1E0,-3.6393363E-2,-2.3913575E-2,-6.1888482E-2,1E0,1E0,2.025E3,1.6347682E-2,5E1,5E1,-2.6368994E-2,5E1,1E0,-4.8117884E-2,1E0,2.025E3,1.6429884E-2,1.2E1,-6.695649E-2,-3.030619E-2,1E0,-2.8775802E-2,1E0,2.025E3,2.024E3,-6.357337E-2,-5.7685632E-2,-6.513872E-2,1E0,6.2045187E-2,1E0,1E0,2E0,-6.349099E-2,2.024E3,1E0,-3.4056988E-2,-2.598009E-2,-2.5922785E-2,-3.5582755E-2,-1.5169725E-2,-2.1636283E-2,2.025E3,-3.4585875E-2,-4.6082E-2,1.9588826E-2,-1.02478916E-4,-2.3809193E-2,-6.675645E-2,-6.704425E-3,1.8508427E-2,-6.211912E-4,-4.8769336E-2,-3.007174E-2,-4.2753063E-2,-6.860689E-2,-5.3193964E-2,-2.4482368E-2,1.4320477E-2,-3.1504497E-2,7.0422413E-3,6.6753484E-2,3.0830462E-2,-2.5108496E-2,2.7118325E-2,-5.822265E-4,-3.0499667E-2,-2.1292798E-2,-1.2021775E-2,-4.736766E-2,-1.7282747E-2,-3.286698E-2],"split_indices":[1125,1125,437,1126,486,808,1126,142,1125,289,1125,917,36,1129,1129,531,1129,142,439,37,1125,1126,136,479,1127,1129,1129,0,1128,0,0,22,0,351,1124,0,0,136,0,1124,0,15,1129,329,0,0,0,486,1128,1129,0,1126,1126,0,1126,15,0,33,1129,0,1124,0,0,422,0,479,1129,1129,0,0,0,393,0,829,18,1127,0,1129,2,0,0,0,0,0,0,1129,0,0,0,0,0,0,0,0,0,0,0,0,0,0,0,0,0,0,0,0,0,0,0,0,0,0,0,0,0],"split_type":[0,0,0,0,0,0,0,0,0,0,0,0,0,0,0,0,0,0,0,0,0,0,0,0,0,0,0,0,0,0,0,0,0,0,0,0,0,0,